{"learner":{"attributes":{"scikit_learn":"{\"_estimator_type\": \"classifier\"}"},"feature_names":["Open","High","Low","Close","Volume","MA_5","MA_20","MA_60","RSI_14","MACD","Signal_Line"],"feature_types":["float","float","float","float","float","float","float","float","float","float","float"],"gradient_booster":{"model":{"cats":{"enc":[],"feature_segments":[],"sorted_idx":[]},"gbtree_model_param":{"num_parallel_tree":"1","num_trees":"50"},"iteration_indptr":[0,1,2,3,4,5,6,7,8,9,10,11,12,13,14,15,16,17,18,19,20,21,22,23,24,25,26,27,28,29,30,31,32,33,34,35,36,37,38,39,40,41,42,43,44,45,46,47,48,49,50],"tree_info":[0,0,0,0,0,0,0,0,0,0,0,0,0,0,0,0,0,0,0,0,0,0,0,0,0,0,0,0,0,0,0,0,0,0,0,0,0,0,0,0,0,0,0,0,0,0,0,0,0,0],"trees":[{"base_weights":[-9.917412E-8,5.83415E-1,-1.1698378E-2,7.313287E-1,-4.403838E-1,2.802465E-1,-2.5156576E-2,5.3179157E-1,1.3873527E0,-1.3247309E0,3.8676807E-1,8.9264965E-1,3.143491E-2,-4.8602737E-2,1.3269994E-1,3.3993755E-2,1.56188E-1,1.4986193E-1,1.34214E-2,-2.6409257E-2,-1.5176512E-1,-7.1733594E-2,8.956094E-2,1.248937E-1,3.6458947E-2,8.473163E-2,-9.241488E-3,2.5770348E-3,-1.523401E-2,7.542447E-2,5.9145377E-3],"categories":[],"categories_nodes":[],"categories_segments":[],"categories_sizes":[],"default_left":[0,0,0,0,0,0,0,0,0,0,0,0,0,0,0,0,0,0,0,0,0,0,0,0,0,0,0,0,0,0,0],"id":0,"left_children":[1,3,5,7,9,11,13,15,17,19,21,23,25,27,29,-1,-1,-1,-1,-1,-1,-1,-1,-1,-1,-1,-1,-1,-1,-1,-1],"loss_changes":[3.53649E1,1.5746822E1,1.996604E1,1.0961586E1,1.0374612E1,3.4093758E1,1.7982512E1,1.3333086E1,2.618599E0,9.7872066E-1,4.991177E0,1.1709927E1,1.6273645E1,3.2636005E1,2.868271E1,0E0,0E0,0E0,0E0,0E0,0E0,0E0,0E0,0E0,0E0,0E0,0E0,0E0,0E0,0E0,0E0],"parents":[2147483647,0,0,1,1,2,2,3,3,4,4,5,5,6,6,7,7,8,8,9,9,10,10,11,11,12,12,13,13,14,14],"right_children":[2,4,6,8,10,12,14,16,18,20,22,24,26,28,30,-1,-1,-1,-1,-1,-1,-1,-1,-1,-1,-1,-1,-1,-1,-1,-1],"split_conditions":[1.8680355E1,1.4528857E-1,-5.8074026E0,1.8330477E1,1.702122E-1,3.950229E2,3.6649816E0,6.3157875E1,6.463414E1,7.467094E-2,5.5813953E1,-6.457517E0,-3.0144276E1,6.3544716E1,2.00567E2,3.3993755E-2,1.56188E-1,1.4986193E-1,1.34214E-2,-2.6409257E-2,-1.5176512E-1,-7.1733594E-2,8.956094E-2,1.248937E-1,3.6458947E-2,8.473163E-2,-9.241488E-3,2.5770348E-3,-1.523401E-2,7.542447E-2,5.9145377E-3],"split_indices":[5,9,9,2,10,6,9,8,8,10,8,10,9,7,5,0,0,0,0,0,0,0,0,0,0,0,0,0,0,0,0],"split_type":[0,0,0,0,0,0,0,0,0,0,0,0,0,0,0,0,0,0,0,0,0,0,0,0,0,0,0,0,0,0,0],"sum_hessian":[5.1797065E3,1.0085799E2,5.0788486E3,8.8375565E1,1.2482424E1,2.229361E2,4.8559126E3,6.9152626E1,1.9222933E1,5.741915E0,6.740509E0,6.3660362E1,1.5927573E2,4.228546E3,6.2736664E2,5.941634E1,9.736291E0,1.7475393E1,1.7475394E0,1.2482424E0,4.493673E0,1.9971879E0,4.743321E0,3.7197624E1,2.646274E1,2.0221527E1,1.390542E2,2.4632815E3,1.7652644E3,6.5407906E1,5.6195874E2],"tree_param":{"num_deleted":"0","num_feature":"11","num_nodes":"31","size_leaf_vector":"1"}},{"base_weights":[1.0806451E-4,5.294082E-1,-1.0461118E-2,6.6539574E-1,-4.087683E-1,2.1832201E-1,-2.5029259E-2,4.8288497E-1,1.2695856E0,-8.63604E-1,8.910222E-1,2.794627E-1,-5.608311E-1,-8.071448E-2,3.7920102E-2,3.0700255E-2,1.4363848E-1,1.3719963E-1,1.2572348E-2,-1.21845804E-1,-1.7612366E-2,1.1732568E-1,1.4931626E-2,1.8755583E-2,7.686361E-2,-9.1066305E-4,-1.5588234E-1,1.111091E-2,-1.0872935E-2,5.905501E-3,-2.9376835E-2],"categories":[],"categories_nodes":[],"categories_segments":[],"categories_sizes":[],"default_left":[0,0,0,0,0,0,0,0,0,0,0,0,0,0,0,0,0,0,0,0,0,0,0,0,0,0,0,0,0,0,0],"id":1,"left_children":[1,3,5,7,9,11,13,15,17,19,21,23,25,27,29,-1,-1,-1,-1,-1,-1,-1,-1,-1,-1,-1,-1,-1,-1,-1,-1],"loss_changes":[2.8984533E1,1.3212738E1,1.693579E1,9.197933E0,8.727285E0,1.4648039E1,1.6746332E1,1.1288965E1,2.173565E0,2.3418446E0,6.582725E-1,1.2566946E1,1.23561E1,1.3633879E1,1.5739071E1,0E0,0E0,0E0,0E0,0E0,0E0,0E0,0E0,0E0,0E0,0E0,0E0,0E0,0E0,0E0,0E0],"parents":[2147483647,0,0,1,1,2,2,3,3,4,4,5,5,6,6,7,7,8,8,9,9,10,10,11,11,12,12,13,13,14,14],"right_children":[2,4,6,8,10,12,14,16,18,20,22,24,26,28,30,-1,-1,-1,-1,-1,-1,-1,-1,-1,-1,-1,-1,-1,-1,-1,-1],"split_conditions":[1.8680355E1,1.4528857E-1,-4.3766217E0,1.8330477E1,3.191828E-1,1.2603646E3,1.5269465E7,6.3157875E1,6.463414E1,1.702122E-1,1.8102299E1,7.828637E2,4.53125E1,2.827148E1,8.061223E1,3.0700255E-2,1.4363848E-1,1.3719963E-1,1.2572348E-2,-1.21845804E-1,-1.7612366E-2,1.1732568E-1,1.4931626E-2,1.8755583E-2,7.686361E-2,-9.1066305E-4,-1.5588234E-1,1.111091E-2,-1.0872935E-2,5.905501E-3,-2.9376835E-2],"split_indices":[5,9,9,2,9,6,4,8,8,10,0,1,8,6,8,0,0,0,0,0,0,0,0,0,0,0,0,0,0,0,0],"split_type":[0,0,0,0,0,0,0,0,0,0,0,0,0,0,0,0,0,0,0,0,0,0,0,0,0,0,0,0,0,0,0],"sum_hessian":[5.179121E3,1.0043215E2,5.078689E3,8.797154E1,1.2460613E1,3.031967E2,4.775492E3,6.894438E1,1.902716E1,9.479155E0,2.9814584E0,2.8173044E2,2.1466253E1,2.533801E3,2.2416912E3,5.932354E1,9.620839E0,1.7280579E1,1.7465816E0,5.7426434E0,3.736511E0,1.7382013E0,1.2432572E0,2.38335E2,4.3395435E1,1.4473776E1,6.992478E0,3.2251413E2,2.2112869E3,2.1081816E3,1.3350958E2],"tree_param":{"num_deleted":"0","num_feature":"11","num_nodes":"31","size_leaf_vector":"1"}},{"base_weights":[1.527208E-4,4.833864E-1,-9.42837E-3,6.0743123E-1,-3.7011397E-1,-2.3559785E-2,2.1201123E-1,4.3930852E-1,1.1712458E0,-7.934392E-1,8.4047043E-1,3.3721566E-1,-3.313955E-2,5.808674E-1,7.523065E-2,2.7735839E-2,1.3333538E-1,1.3057418E-1,3.0068547E-2,-1.12135164E-1,-1.621344E-2,1.1164428E-1,1.3002965E-2,1.04932785E-1,-5.2890615E-3,4.3943343E-3,-7.83841E-3,7.848524E-2,-6.2258065E-2,1.0145507E-1,3.15919E-3],"categories":[],"categories_nodes":[],"categories_segments":[],"categories_sizes":[],"default_left":[0,0,0,0,0,0,0,0,0,0,0,0,0,0,0,0,0,0,0,0,0,0,0,0,0,0,0,0,0,0,0],"id":2,"left_children":[1,3,5,7,9,11,13,15,17,19,21,23,25,27,29,-1,-1,-1,-1,-1,-1,-1,-1,-1,-1,-1,-1,-1,-1,-1,-1],"loss_changes":[2.3983835E1,1.0887341E1,1.5900057E1,7.8563843E0,7.53451E0,1.6516663E1,1.5334631E1,9.711367E0,1.9121475E0,1.9801059E0,6.307738E-1,3.4396965E1,1.623142E1,2.0693434E1,9.129518E0,0E0,0E0,0E0,0E0,0E0,0E0,0E0,0E0,0E0,0E0,0E0,0E0,0E0,0E0,0E0,0E0],"parents":[2147483647,0,0,1,1,2,2,3,3,4,4,5,5,6,6,7,7,8,8,9,9,10,10,11,11,12,12,13,13,14,14],"right_children":[2,4,6,8,10,12,14,16,18,20,22,24,26,28,30,-1,-1,-1,-1,-1,-1,-1,-1,-1,-1,-1,-1,-1,-1,-1,-1],"split_conditions":[1.8680355E1,1.4528857E-1,7.19E2,1.8330477E1,3.191828E-1,-6.457517E0,9.176E2,6.3157875E1,1.883055E1,1.702122E-1,1.84826E1,3.950229E2,4.0744183E1,7.3437355E1,-3.0144276E1,2.7735839E-2,1.3333538E-1,1.3057418E-1,3.0068547E-2,-1.12135164E-1,-1.621344E-2,1.1164428E-1,1.3002965E-2,1.04932785E-1,-5.2890615E-3,4.3943343E-3,-7.83841E-3,7.848524E-2,-6.2258065E-2,1.0145507E-1,3.15919E-3],"split_indices":[5,9,1,2,9,10,5,8,3,10,3,6,1,8,9,0,0,0,0,0,0,0,0,0,0,0,0,0,0,0,0],"split_type":[0,0,0,0,0,0,0,0,0,0,0,0,0,0,0,0,0,0,0,0,0,0,0,0,0,0,0,0,0,0,0],"sum_hessian":[5.178215E3,9.971118E1,5.078504E3,8.7310135E1,1.240105E1,4.774695E3,3.0380887E2,6.862589E1,1.8684238E1,9.4434E0,2.9576492E0,1.2261964E2,4.652075E3,8.130553E1,2.2250334E2,5.921054E1,9.415353E0,1.5750935E1,2.9333038E0,5.7042522E0,3.7391477E0,1.7185829E0,1.2390665E0,4.280047E1,7.981917E1,1.7206471E3,2.9314282E3,6.981901E1,1.1486525E1,8.890358E0,2.1361298E2],"tree_param":{"num_deleted":"0","num_feature":"11","num_nodes":"31","size_leaf_vector":"1"}},{"base_weights":[2.586788E-4,4.4268867E-1,-8.434094E-3,5.560119E-1,-3.3608437E-1,-2.117791E-2,1.9157676E-1,4.0022868E-1,1.0871991E0,-7.316353E-1,7.947161E-1,3.0584824E-1,-2.9823132E-2,5.253329E-1,6.824621E-2,1.5536758E-2,9.253422E-2,1.18370675E-1,7.1705477E-3,-1.0376102E-1,-1.4927821E-2,1.05830066E-1,1.229144E-2,9.595766E-2,-4.7655357E-3,-1.0789841E-2,8.674096E-4,7.112381E-2,-5.646817E-2,6.0551763E-2,4.1560593E-4],"categories":[],"categories_nodes":[],"categories_segments":[],"categories_sizes":[],"default_left":[0,0,0,0,0,0,0,0,0,0,0,0,0,0,0,0,0,0,0,0,0,0,0,0,0,0,0,0,0,0,0],"id":3,"left_children":[1,3,5,7,9,11,13,15,17,19,21,23,25,27,29,-1,-1,-1,-1,-1,-1,-1,-1,-1,-1,-1,-1,-1,-1,-1,-1],"loss_changes":[1.991667E1,8.993446E0,1.294957E1,6.80455E0,6.530091E0,1.3510594E1,1.2490616E1,8.758001E0,1.8023624E0,1.6935272E0,5.6509185E-1,2.8489632E1,1.3987751E1,1.7010265E1,7.6885195E0,0E0,0E0,0E0,0E0,0E0,0E0,0E0,0E0,0E0,0E0,0E0,0E0,0E0,0E0,0E0,0E0],"parents":[2147483647,0,0,1,1,2,2,3,3,4,4,5,5,6,6,7,7,8,8,9,9,10,10,11,11,12,12,13,13,14,14],"right_children":[2,4,6,8,10,12,14,16,18,20,22,24,26,28,30,-1,-1,-1,-1,-1,-1,-1,-1,-1,-1,-1,-1,-1,-1,-1,-1],"split_conditions":[1.8680355E1,1.4528857E-1,7.19E2,1.8330477E1,3.191828E-1,-6.457517E0,9.176E2,5.2173912E1,6.463414E1,1.702122E-1,1.84826E1,3.950229E2,8.793252E6,7.3437355E1,3.544312E1,1.5536758E-2,9.253422E-2,1.18370675E-1,7.1705477E-3,-1.0376102E-1,-1.4927821E-2,1.05830066E-1,1.229144E-2,9.595766E-2,-4.7655357E-3,-1.0789841E-2,8.674096E-4,7.112381E-2,-5.646817E-2,6.0551763E-2,4.1560593E-4],"split_indices":[5,9,1,2,9,10,5,8,8,10,3,6,4,8,8,0,0,0,0,0,0,0,0,0,0,0,0,0,0,0,0],"split_type":[0,0,0,0,0,0,0,0,0,0,0,0,0,0,0,0,0,0,0,0,0,0,0,0,0,0,0,0,0,0,0],"sum_hessian":[5.176647E3,9.878779E1,5.0778594E3,8.648846E1,1.2299335E1,4.7745405E3,3.033187E2,6.823143E1,1.825702E1,9.373503E0,2.925832E0,1.2208298E2,4.6524575E3,8.096158E1,2.2235712E2,4.7416798E1,2.0814636E1,1.6521275E1,1.735748E0,5.632436E0,3.741067E0,1.6881585E0,1.2376735E0,4.2245182E1,7.98378E1,1.5358451E3,3.1166125E3,6.946211E1,1.1499469E1,2.279739E1,1.9955972E2],"tree_param":{"num_deleted":"0","num_feature":"11","num_nodes":"31","size_leaf_vector":"1"}},{"base_weights":[3.2694876E-4,2.8267393E-1,-1.10377E-2,3.2518134E-1,-1.2178745E0,-3.0472003E-2,1.23634584E-1,2.3363961E-1,6.617444E-1,1.4720747E-2,-1.6266356E-1,-1.6164215E-2,-2.7078602E-1,6.9773185E-1,5.5856213E-2,3.821047E-2,-9.107528E-3,3.9109583E-3,9.912171E-2,2.0796368E-2,-3.1104458E-3,3.1271636E-2,-3.227691E-2,-9.869838E-2,8.810398E-2,5.2182566E-2,3.6556306E-4],"categories":[],"categories_nodes":[],"categories_segments":[],"categories_sizes":[],"default_left":[0,0,0,0,0,0,0,0,0,0,0,0,0,0,0,0,0,0,0,0,0,0,0,0,0,0,0],"id":4,"left_children":[1,3,5,7,9,11,13,15,17,-1,-1,19,21,23,25,-1,-1,-1,-1,-1,-1,-1,-1,-1,-1,-1,-1],"loss_changes":[1.6610327E1,1.3171843E1,1.3027954E1,5.8707676E0,3.4358702E0,1.4950819E1,2.4387716E1,7.5214195E0,8.427956E0,0E0,0E0,1.375607E1,7.5124893E0,2.131356E1,1.3681534E1,0E0,0E0,0E0,0E0,0E0,0E0,0E0,0E0,0E0,0E0,0E0,0E0],"parents":[2147483647,0,0,1,1,2,2,3,3,4,4,5,5,6,6,7,7,8,8,11,11,12,12,13,13,14,14],"right_children":[2,4,6,8,10,12,14,16,18,-1,-1,20,22,24,26,-1,-1,-1,-1,-1,-1,-1,-1,-1,-1,-1,-1],"split_conditions":[1.9405525E1,3.6344862E-1,3.6649816E0,1.9028181E1,1.88E1,1.5495465E0,2.00567E2,1.8932375E1,4.6231955E-2,1.4720747E-2,-1.6266356E-1,2.3943657E1,1.919631E6,8.2687546E1,3.5153005E0,3.821047E-2,-9.107528E-3,3.9109583E-3,9.912171E-2,2.0796368E-2,-3.1104458E-3,3.1271636E-2,-3.227691E-2,-9.869838E-2,8.810398E-2,5.2182566E-2,3.6556306E-4],"split_indices":[6,10,9,6,1,9,5,1,9,0,0,8,4,0,10,0,0,0,0,0,0,0,0,0,0,0,0],"split_type":[0,0,0,0,0,0,0,0,0,0,0,0,0,0,0,0,0,0,0,0,0,0,0,0,0,0,0],"sum_hessian":[5.174561E3,1.992967E2,4.975264E3,1.9456828E2,4.7284236E0,4.348512E3,6.267519E2,1.5429562E2,4.027265E1,1.2370596E0,3.4913642E0,4.1051665E3,2.4334566E2,6.519996E1,5.615519E2,1.05762505E2,4.8533127E1,1.4323302E1,2.594935E1,2.5573946E2,3.849427E3,1.9495527E1,2.2385013E2,5.9678035E0,5.923216E1,5.566457E1,5.0588733E2],"tree_param":{"num_deleted":"0","num_feature":"11","num_nodes":"27","size_leaf_vector":"1"}},{"base_weights":[3.1164679E-4,3.73991E-1,-6.921315E-3,5.540228E-1,-8.321246E-2,-1.829377E-2,1.7192957E-1,3.758801E-1,1.1655921E0,-3.6765975E-1,5.5986315E-1,-2.0820184E-2,9.664198E-1,4.336218E-1,4.073794E-2,4.946078E-3,9.038006E-2,1.2579083E-1,4.215896E-3,9.767833E-2,-6.212889E-2,1.1593536E-1,-9.4092175E-2,-1.6475931E-3,-7.902141E-2,1.2822904E-1,6.9970028E-3,5.573483E-2,-5.8191936E-2,-6.675046E-2,1.2343859E-2],"categories":[],"categories_nodes":[],"categories_segments":[],"categories_sizes":[],"default_left":[0,0,0,0,0,0,0,0,0,0,0,0,0,0,0,0,0,0,0,0,0,0,0,0,0,0,0,0,0,0,0],"id":5,"left_children":[1,3,5,7,9,11,13,15,17,19,21,23,25,27,29,-1,-1,-1,-1,-1,-1,-1,-1,-1,-1,-1,-1,-1,-1,-1,-1],"loss_changes":[1.3988467E1,8.135283E0,1.0330233E1,7.258013E0,5.44365E0,1.18984785E1,1.0406889E1,9.636793E0,1.5502682E0,7.582321E0,9.348164E0,1.5908421E1,3.376111E0,1.30511055E1,1.1993216E1,0E0,0E0,0E0,0E0,0E0,0E0,0E0,0E0,0E0,0E0,0E0,0E0,0E0,0E0,0E0,0E0],"parents":[2147483647,0,0,1,1,2,2,3,3,4,4,5,5,6,6,7,7,8,8,9,9,10,10,11,11,12,12,13,13,14,14],"right_children":[2,4,6,8,10,12,14,16,18,20,22,24,26,28,30,-1,-1,-1,-1,-1,-1,-1,-1,-1,-1,-1,-1,-1,-1,-1,-1],"split_conditions":[1.8680355E1,7.81069E-2,7.19E2,5.250003E1,1.7611553E1,2.6320045E1,9.5782434E2,1.8705E1,1.883055E1,1.712327E1,2.0628424E7,1.6496967E1,6.6106696E2,7.692308E1,1.02E3,4.946078E-3,9.038006E-2,1.2579083E-1,4.215896E-3,9.767833E-2,-6.212889E-2,1.1593536E-1,-9.4092175E-2,-1.6475931E-3,-7.902141E-2,1.2822904E-1,6.9970028E-3,5.573483E-2,-5.8191936E-2,-6.675046E-2,1.2343859E-2],"split_indices":[5,9,1,8,7,9,5,6,3,0,4,10,3,8,1,0,0,0,0,0,0,0,0,0,0,0,0,0,0,0,0],"split_type":[0,0,0,0,0,0,0,0,0,0,0,0,0,0,0,0,0,0,0,0,0,0,0,0,0,0,0,0,0,0,0],"sum_hessian":[5.1735723E3,9.727565E1,5.076297E3,6.964139E1,2.7634262E1,4.773656E3,3.0264108E2,5.518212E1,1.4459264E1,1.9456486E1,8.177777E0,4.762416E3,1.1239753E1,1.00288025E2,2.0235306E2,3.47744E1,2.0407722E1,1.3250709E1,1.208555E0,2.6354115E0,1.6821074E1,6.0061245E0,2.1716526E0,4.7366924E3,2.5723524E1,7.9929647E0,3.2467883E0,8.979875E1,1.0489277E1,2.0418566E1,1.819345E2],"tree_param":{"num_deleted":"0","num_feature":"11","num_nodes":"31","size_leaf_vector":"1"}},{"base_weights":[3.4996917E-4,2.4099676E-1,-9.259188E-3,2.795063E-1,-1.1042463E0,-4.9634856E-1,-3.974462E-3,1.3400224E-1,4.830802E-1,1.665077E-2,-1.4921103E-1,5.76692E-1,-7.872452E-1,-4.642043E-2,4.7662E-2,3.0760437E-2,-5.7488542E-2,5.617243E-2,-9.733336E-2,-1.11732975E-1,1.0248273E-1,-1.0515831E-1,-6.8884157E-3,1.4486429E-2,-8.455002E-3,3.7373845E-3,8.135631E-2],"categories":[],"categories_nodes":[],"categories_segments":[],"categories_sizes":[],"default_left":[0,0,0,0,0,0,0,0,0,0,0,0,0,0,0,0,0,0,0,0,0,0,0,0,0,0,0],"id":6,"left_children":[1,3,5,7,9,11,13,15,17,-1,-1,19,21,23,25,-1,-1,-1,-1,-1,-1,-1,-1,-1,-1,-1,-1],"loss_changes":[1.1964653E1,1.0600758E1,1.2805533E1,5.679945E0,3.0731297E0,1.7120712E1,1.0792396E1,1.4265905E1,9.761944E0,0E0,0E0,1.02282915E1,7.9844704E0,1.9723202E1,1.7474934E1,0E0,0E0,0E0,0E0,0E0,0E0,0E0,0E0,0E0,0E0,0E0,0E0],"parents":[2147483647,0,0,1,1,2,2,3,3,4,4,5,5,6,6,7,7,8,8,11,11,12,12,13,13,14,14],"right_children":[2,4,6,8,10,12,14,16,18,-1,-1,20,22,24,26,-1,-1,-1,-1,-1,-1,-1,-1,-1,-1,-1,-1],"split_conditions":[1.9405525E1,3.6344862E-1,1.9578173E1,1.8789543E1,1.88E1,1.96E1,1.5269465E7,1.8932375E1,7.871284E1,1.665077E-2,-1.4921103E-1,-7.114567E-2,7.278102E1,-1.3588467E0,1.1104424E3,3.0760437E-2,-5.7488542E-2,5.617243E-2,-9.733336E-2,-1.11732975E-1,1.0248273E-1,-1.0515831E-1,-6.8884157E-3,1.4486429E-2,-8.455002E-3,3.7373845E-3,8.135631E-2],"split_indices":[6,10,7,6,1,1,4,1,8,0,0,10,8,9,7,0,0,0,0,0,0,0,0,0,0,0,0],"split_type":[0,0,0,0,0,0,0,0,0,0,0,0,0,0,0,0,0,0,0,0,0,0,0,0,0,0,0],"sum_hessian":[5.1721343E3,1.9767146E2,4.974463E3,1.9294048E2,4.730976E0,5.239432E1,4.9220684E3,1.1348531E2,7.945517E1,1.239786E0,3.49119E0,1.0964977E1,4.1429348E1,2.7014973E3,2.2205713E3,9.1615364E1,2.1869951E1,7.596736E1,3.48781E0,1.9814599E0,8.983517E0,2.994611E1,1.1483237E1,4.4853455E2,2.2529626E3,2.192173E3,2.8398117E1],"tree_param":{"num_deleted":"0","num_feature":"11","num_nodes":"27","size_leaf_vector":"1"}},{"base_weights":[2.774602E-4,8.95532E-2,-2.4075376E-2,6.6086984E-1,5.684168E-2,-4.8421983E-2,1.0954611E-1,1.0322876E0,3.140259E-1,1.1046925E-2,3.8717154E-1,8.8618584E-2,-7.982304E-2,6.948584E-1,5.181926E-2,7.514513E-2,1.5820761E-1,-1.0478467E-1,5.8471363E-2,9.160379E-3,-2.1551315E-2,4.359379E-2,-7.772216E-2,-1.0365903E-1,1.1211649E-2,3.8016195E-5,-1.6028846E-2,-9.00351E-2,9.033995E-2,4.7512E-2,-4.3655347E-4],"categories":[],"categories_nodes":[],"categories_segments":[],"categories_sizes":[],"default_left":[0,0,0,0,0,0,0,0,0,0,0,0,0,0,0,0,0,0,0,0,0,0,0,0,0,0,0,0,0,0,0],"id":7,"left_children":[1,3,5,7,9,11,13,15,17,19,21,23,25,27,29,-1,-1,-1,-1,-1,-1,-1,-1,-1,-1,-1,-1,-1,-1,-1,-1],"loss_changes":[1.1246566E1,2.068179E1,1.3227345E1,7.398327E0,1.5875146E1,1.4804002E1,2.1139349E1,3.2131653E0,1.2569864E1,1.6864227E1,7.594452E0,1.7077408E1,1.8057684E1,1.9502659E1,1.3594758E1,0E0,0E0,0E0,0E0,0E0,0E0,0E0,0E0,0E0,0E0,0E0,0E0,0E0,0E0,0E0,0E0],"parents":[2147483647,0,0,1,1,2,2,3,3,4,4,5,5,6,6,7,7,8,8,9,9,10,10,11,11,12,12,13,13,14,14],"right_children":[2,4,6,8,10,12,14,16,18,20,22,24,26,28,30,-1,-1,-1,-1,-1,-1,-1,-1,-1,-1,-1,-1,-1,-1,-1,-1],"split_conditions":[2.8618557E1,-5.348566E-1,3.6649816E0,2.470793E1,2.6327969E1,-1.4371623E0,1.5948364E2,2.340728E1,1.9444403E1,1.8039863E-1,8.235296E1,3.9643555E1,6.3544716E1,8.2687546E1,3.8607213E0,7.514513E-2,1.5820761E-1,-1.0478467E-1,5.8471363E-2,9.160379E-3,-2.1551315E-2,4.359379E-2,-7.772216E-2,-1.0365903E-1,1.1211649E-2,3.8016195E-5,-1.6028846E-2,-9.00351E-2,9.033995E-2,4.7512E-2,-4.3655347E-4],"split_indices":[1,10,9,1,2,9,7,6,8,10,8,6,7,0,10,0,0,0,0,0,0,0,0,0,0,0,0,0,0,0,0],"split_type":[0,0,0,0,0,0,0,0,0,0,0,0,0,0,0,0,0,0,0,0,0,0,0,0,0,0,0,0,0,0,0],"sum_hessian":[5.1709414E3,1.1076605E3,4.0632808E3,5.8946102E1,1.0487145E3,3.4375728E3,6.25708E2,2.7510384E1,3.143572E1,9.2193665E2,1.2677779E2,6.4049603E2,2.797077E3,5.518019E1,5.7052783E2,1.9775637E1,7.7347465E0,4.7361836E0,2.6699537E1,6.805518E2,2.4138483E2,1.2228206E2,4.4957275E0,1.2220023E1,6.28276E2,1.4013193E3,1.3957576E3,5.996133E0,4.918406E1,6.5979164E1,5.0454865E2],"tree_param":{"num_deleted":"0","num_feature":"11","num_nodes":"31","size_leaf_vector":"1"}},{"base_weights":[2.7676037E-4,1.8995191E-1,-9.95099E-3,5.5950516E-1,4.762729E-2,-7.493839E-2,2.349809E-2,1.5160793E0,3.5801908E-1,-5.0046086E-1,1.6521962E-1,-1.57543E-1,5.8520418E-2,1.978586E-2,9.000222E-1,6.937218E-2,1.6285704E-1,-8.998804E-2,4.705263E-2,-7.677144E-2,6.4893015E-2,7.8216285E-2,8.707075E-3,-1.3593028E-2,-1.131791E-1,1.4853306E-1,3.4626282E-3,3.1801641E-3,-2.9785547E-2,5.748069E-3,1.1799661E-1],"categories":[],"categories_nodes":[],"categories_segments":[],"categories_sizes":[],"default_left":[0,0,0,0,0,0,0,0,0,0,0,0,0,0,0,0,0,0,0,0,0,0,0,0,0,0,0,0,0,0,0],"id":8,"left_children":[1,3,5,7,9,11,13,15,17,19,21,23,25,27,29,-1,-1,-1,-1,-1,-1,-1,-1,-1,-1,-1,-1,-1,-1,-1,-1],"loss_changes":[1.0031819E1,1.3889116E1,1.0667625E1,1.3617685E1,1.2464042E1,1.8392567E1,1.0525006E1,2.4143219E-2,9.1974E0,1.0998647E1,7.594046E0,2.153978E1,2.170812E1,1.2327723E1,3.1498384E0,0E0,0E0,0E0,0E0,0E0,0E0,0E0,0E0,0E0,0E0,0E0,0E0,0E0,0E0,0E0,0E0],"parents":[2147483647,0,0,1,1,2,2,3,3,4,4,5,5,6,6,7,7,8,8,9,9,10,10,11,11,12,12,13,13,14,14],"right_children":[2,4,6,8,10,12,14,16,18,20,22,24,26,28,30,-1,-1,-1,-1,-1,-1,-1,-1,-1,-1,-1,-1,-1,-1,-1,-1],"split_conditions":[2.3943657E1,-2.4081972E0,8.793252E6,1.07199646E2,-1.2180094E0,2.0382951E2,1.3797336E3,5.2452065E1,1.4147736E2,6.6996956E1,5.098265E6,1.9230429E2,2.1540926E2,8.297877E1,1.4298402E3,6.937218E-2,1.6285704E-1,-8.998804E-2,4.705263E-2,-7.677144E-2,6.4893015E-2,7.8216285E-2,8.707075E-3,-1.3593028E-2,-1.131791E-1,1.4853306E-1,3.4626282E-3,3.1801641E-3,-2.9785547E-2,5.748069E-3,1.1799661E-1],"split_indices":[8,9,4,1,10,6,7,7,6,7,4,2,7,8,6,0,0,0,0,0,0,0,0,0,0,0,0,0,0,0,0],"split_type":[0,0,0,0,0,0,0,0,0,0,0,0,0,0,0,0,0,0,0,0,0,0,0,0,0,0,0,0,0,0,0],"sum_hessian":[5.1691997E3,2.6357574E2,4.905624E3,7.247068E1,1.9110506E2,1.6665277E3,3.2390962E3,1.1473704E1,6.099698E1,3.318352E1,1.5792154E2,1.0292751E3,6.372525E2,3.226454E3,1.264201E1,2.2430406E0,9.230663E0,4.433155E0,5.6563824E1,2.719279E1,5.9907317E0,1.6742207E1,1.4117934E2,1.00805206E3,2.1223103E1,9.4886055E0,6.277639E2,3.1097192E3,1.1673501E2,3.4534776E0,9.188533E0],"tree_param":{"num_deleted":"0","num_feature":"11","num_nodes":"31","size_leaf_vector":"1"}},{"base_weights":[3.3083974E-4,2.3880772E-1,-7.2127655E-3,2.9440722E-1,-1.1217536E0,-3.105466E-1,-9.733324E-4,3.7191916E-1,-5.8393687E-2,1.6745213E-2,-1.4618772E-1,7.2958034E-1,-3.8183904E-1,9.917327E-1,-5.2806255E-3,4.076025E-2,-6.273031E-2,-6.911173E-2,1.4703426E-2,-3.0567604E-3,9.881083E-2,-1.8553065E-1,-3.0265702E-2,-3.336849E-2,1.2957303E-1,1.7199278E-2,-1.5038511E-3],"categories":[],"categories_nodes":[],"categories_segments":[],"categories_sizes":[],"default_left":[0,0,0,0,0,0,0,0,0,0,0,0,0,0,0,0,0,0,0,0,0,0,0,0,0,0,0],"id":9,"left_children":[1,3,5,7,9,11,13,15,17,-1,-1,19,21,23,25,-1,-1,-1,-1,-1,-1,-1,-1,-1,-1,-1,-1],"loss_changes":[9.301009E0,1.2322522E1,9.484963E0,4.2083883E0,3.0651188E0,7.7685785E0,2.100695E1,4.7360516E0,3.798458E0,0E0,0E0,1.3709974E0,1.05438385E1,8.984295E0,8.463883E0,0E0,0E0,0E0,0E0,0E0,0E0,0E0,0E0,0E0,0E0,0E0,0E0],"parents":[2147483647,0,0,1,1,2,2,3,3,4,4,5,5,6,6,7,7,8,8,11,11,12,12,13,13,14,14],"right_children":[2,4,6,8,10,12,14,16,18,-1,-1,20,22,24,26,-1,-1,-1,-1,-1,-1,-1,-1,-1,-1,-1,-1],"split_conditions":[1.9026897E1,3.6344862E-1,1.9782656E1,1.943353E-1,1.88E1,1.7758112E1,2.0166954E1,1.9174202E-1,1.6085623E-1,1.6745213E-2,-1.4618772E-1,-5.99666E-1,-3.8022953E-1,1.943335E1,2.3943657E1,4.076025E-2,-6.273031E-2,-6.911173E-2,1.4703426E-2,-3.0567604E-3,9.881083E-2,-1.8553065E-1,-3.0265702E-2,-3.336849E-2,1.2957303E-1,1.7199278E-2,-1.5038511E-3],"split_indices":[7,10,7,9,1,3,7,10,10,0,0,10,9,0,8,0,0,0,0,0,0,0,0,0,0,0,0],"split_type":[0,0,0,0,0,0,0,0,0,0,0,0,0,0,0,0,0,0,0,0,0,0,0,0,0,0,0],"sum_hessian":[5.1682124E3,1.5753033E2,5.010682E3,1.5209843E2,5.431908E0,1.0000705E2,4.910675E3,1.2465663E2,2.7441803E1,1.239892E0,4.192016E0,5.8226976E0,9.418435E1,2.0224695E1,4.89045E3,1.2093016E2,3.7264707E0,6.146411E0,2.1295393E1,1.701513E0,4.121185E0,3.6592824E0,9.052507E1,3.7550707E0,1.6469625E1,2.5427948E2,4.636171E3],"tree_param":{"num_deleted":"0","num_feature":"11","num_nodes":"27","size_leaf_vector":"1"}},{"base_weights":[2.6290945E-4,7.736979E-2,-2.0745363E-2,5.9789014E-1,4.7712848E-2,-4.224434E-2,9.737979E-2,9.39668E-1,2.814003E-1,-2.9019412E-2,2.1795103E-1,7.321815E-2,-6.866287E-2,5.9259176E-1,3.9622337E-2,3.0972308E-2,1.1222082E-1,-9.693631E-2,5.316059E-2,6.34947E-3,-2.6105547E-2,1.2417324E-1,1.9328896E-2,-1.1622586E-1,9.0176305E-3,1.6646933E-4,-1.3921576E-2,-8.232779E-2,7.49672E-2,-3.798697E-2,8.878029E-3],"categories":[],"categories_nodes":[],"categories_segments":[],"categories_sizes":[],"default_left":[0,0,0,0,0,0,0,0,0,0,0,0,0,0,0,0,0,0,0,0,0,0,0,0,0,0,0,0,0,0,0],"id":10,"left_children":[1,3,5,7,9,11,13,15,17,19,21,23,25,27,29,-1,-1,-1,-1,-1,-1,-1,-1,-1,-1,-1,-1,-1,-1,-1,-1],"loss_changes":[8.373616E0,1.705776E1,1.0320982E1,6.179928E0,1.3699497E1,1.0490965E1,1.7876572E1,2.8970432E0,1.0642353E1,1.554669E1,7.9861145E0,1.3525764E1,1.3883598E1,1.5139322E1,1.1613288E1,0E0,0E0,0E0,0E0,0E0,0E0,0E0,0E0,0E0,0E0,0E0,0E0,0E0,0E0,0E0,0E0],"parents":[2147483647,0,0,1,1,2,2,3,3,4,4,5,5,6,6,7,7,8,8,9,9,10,10,11,11,12,12,13,13,14,14],"right_children":[2,4,6,8,10,12,14,16,18,20,22,24,26,28,30,-1,-1,-1,-1,-1,-1,-1,-1,-1,-1,-1,-1,-1,-1,-1,-1],"split_conditions":[2.8618557E1,-5.348566E-1,3.6649816E0,2.470793E1,2.4154533E1,-1.4371623E0,2.00567E2,1.917825E1,1.9444403E1,1.8039863E-1,2.2899252E1,4.04075E1,6.3544716E1,8.2687546E1,2.3344644E2,3.0972308E-2,1.1222082E-1,-9.693631E-2,5.316059E-2,6.34947E-3,-2.6105547E-2,1.2417324E-1,1.9328896E-2,-1.1622586E-1,9.0176305E-3,1.6646933E-4,-1.3921576E-2,-8.232779E-2,7.49672E-2,-3.798697E-2,8.878029E-3],"split_indices":[1,10,9,1,7,9,5,1,8,10,3,7,7,0,7,0,0,0,0,0,0,0,0,0,0,0,0,0,0,0,0],"split_type":[0,0,0,0,0,0,0,0,0,0,0,0,0,0,0,0,0,0,0,0,0,0,0,0,0,0,0,0,0,0,0],"sum_hessian":[5.1672837E3,1.1058368E3,4.061447E3,5.8576576E1,1.0472603E3,3.436619E3,6.248281E2,2.7216457E1,3.136012E1,7.2245447E2,3.2480576E2,6.3957544E2,2.7970435E3,6.429586E1,5.605323E2,6.7205653E0,2.0495892E1,4.7484794E0,2.661164E1,5.170357E2,2.0541873E2,6.479429E0,3.1832635E2,7.7454863E0,6.3182996E2,1.4012474E3,1.395796E3,5.997274E0,5.829859E1,5.809006E1,5.024422E2],"tree_param":{"num_deleted":"0","num_feature":"11","num_nodes":"31","size_leaf_vector":"1"}},{"base_weights":[2.6002168E-4,2.8267106E-1,-5.0798906E-3,1.4331582E-1,7.848053E-1,7.3335675E-4,-2.4657181E-1,-1.1062101E-1,4.0183628E-1,1.1129586E0,3.8361958E-1,-1.3317974E-2,1.0491363E-1,-1.2510015E0,-1.7281017E-1,4.0726205E-3,-7.0236325E-2,8.654527E-2,-1.6108014E-2,-1.7574726E-2,1.2757753E-1,1.1201266E-1,-3.402528E-2,-2.5512863E-4,-2.0720284E-2,6.408012E-2,5.565708E-3,2.3778327E-2,-1.562101E-1,6.897613E-3,-5.48099E-2],"categories":[],"categories_nodes":[],"categories_segments":[],"categories_sizes":[],"default_left":[0,0,0,0,0,0,0,0,0,0,0,0,0,0,0,0,0,0,0,0,0,0,0,0,0,0,0,0,0,0,0],"id":11,"left_children":[1,3,5,7,9,11,13,15,17,19,21,23,25,27,29,-1,-1,-1,-1,-1,-1,-1,-1,-1,-1,-1,-1,-1,-1,-1,-1],"loss_changes":[7.7919726E0,6.5970535E0,7.11923E0,5.0519614E0,2.2858725E0,7.2517705E0,8.61557E0,3.5450697E0,1.0060171E1,2.4921598E0,6.137626E0,9.111681E0,1.5504733E1,4.0743456E0,1.0219781E1,0E0,0E0,0E0,0E0,0E0,0E0,0E0,0E0,0E0,0E0,0E0,0E0,0E0,0E0,0E0,0E0],"parents":[2147483647,0,0,1,1,2,2,3,3,4,4,5,5,6,6,7,7,8,8,9,9,10,10,11,11,12,12,13,13,14,14],"right_children":[2,4,6,8,10,12,14,16,18,20,22,24,26,28,30,-1,-1,-1,-1,-1,-1,-1,-1,-1,-1,-1,-1,-1,-1,-1,-1],"split_conditions":[1.8680355E1,1.8705E1,8.400005E1,5.094341E1,1.9345266E1,3.6649816E0,-9.35581E-2,1.9186787E1,7.892959E-2,9.230243E6,-4.3076515E-1,1.5495465E0,1.5948364E2,5.644836E6,3.3311344E7,4.0726205E-3,-7.0236325E-2,8.654527E-2,-1.6108014E-2,-1.7574726E-2,1.2757753E-1,1.1201266E-1,-3.402528E-2,-2.5512863E-4,-2.0720284E-2,6.408012E-2,5.565708E-3,2.3778327E-2,-1.562101E-1,6.897613E-3,-5.48099E-2],"split_indices":[5,6,8,8,7,9,10,7,10,4,10,9,7,4,4,0,0,0,0,0,0,0,0,0,0,0,0,0,0,0,0],"split_type":[0,0,0,0,0,0,0,0,0,0,0,0,0,0,0,0,0,0,0,0,0,0,0,0,0,0,0,0,0,0,0],"sum_hessian":[5.164966E3,9.48846E1,5.0700815E3,7.527833E1,1.9606272E1,4.9518755E3,1.18205696E2,3.826443E1,3.7013893E1,9.80886E0,9.797411E0,4.364135E3,5.877412E2,6.9948683E0,1.1121083E2,3.1212523E1,7.0519094E0,2.000247E1,1.7011425E1,1.0913483E0,8.717512E0,4.5849876E0,5.212424E0,4.135498E3,2.2863663E2,4.846423E1,5.39277E2,1.2497556E0,5.7451124E0,6.813189E1,4.307894E1],"tree_param":{"num_deleted":"0","num_feature":"11","num_nodes":"31","size_leaf_vector":"1"}},{"base_weights":[2.5928047E-4,5.8072907E-1,-2.0505139E-3,8.765557E-1,-3.1351778E-1,6.851595E-2,-2.1344569E-2,9.454091E-2,1.2805403E0,6.0863335E-2,-7.6000863E-1,5.43274E-1,4.1669577E-2,4.4167516E-1,-2.653304E-2,8.2310624E-2,-7.656913E-2,1.348556E-1,4.0809777E-2,-2.709983E-4,-1.04437806E-1,8.59819E-2,2.5323061E-2,1.612979E-4,3.3096295E-2,-9.176365E-2,6.340527E-2,-5.841923E-3,4.062138E-3],"categories":[],"categories_nodes":[],"categories_segments":[],"categories_sizes":[],"default_left":[0,0,0,0,0,0,0,0,0,0,0,0,0,0,0,0,0,0,0,0,0,0,0,0,0,0,0,0,0],"id":12,"left_children":[1,3,5,7,9,11,13,15,17,-1,19,21,23,25,27,-1,-1,-1,-1,-1,-1,-1,-1,-1,-1,-1,-1,-1,-1],"loss_changes":[6.925388E0,5.690518E0,7.0062947E0,4.8220224E0,2.861092E0,1.4059929E1,9.719637E0,4.64722E0,5.7128906E-2,0E0,9.382005E-1,5.203974E0,1.2130474E1,1.2306754E1,8.561461E0,0E0,0E0,0E0,0E0,0E0,0E0,0E0,0E0,0E0,0E0,0E0,0E0,0E0,0E0],"parents":[2147483647,0,0,1,1,2,2,3,3,4,4,5,5,6,6,7,7,8,8,10,10,11,11,12,12,13,13,14,14],"right_children":[2,4,6,8,10,12,14,16,18,-1,20,22,24,26,28,-1,-1,-1,-1,-1,-1,-1,-1,-1,-1,-1,-1,-1,-1],"split_conditions":[-3.0144276E1,3.8135628E1,2.8618557E1,6.9145E2,5.022531E6,-5.348566E-1,1.4285808E1,5.181959E2,-1.806992E1,6.0863335E-2,9.1071063E2,2.470793E1,2.6327969E1,3.406403E1,1.9432136E7,8.2310624E-2,-7.656913E-2,1.348556E-1,4.0809777E-2,-2.709983E-4,-1.04437806E-1,8.59819E-2,2.5323061E-2,1.612979E-4,3.3096295E-2,-9.176365E-2,6.340527E-2,-5.841923E-3,4.062138E-3],"split_indices":[9,8,1,6,4,10,8,3,10,0,6,1,2,0,4,0,0,0,0,0,0,0,0,0,0,0,0,0,0],"split_type":[0,0,0,0,0,0,0,0,0,0,0,0,0,0,0,0,0,0,0,0,0,0,0,0,0,0,0,0,0],"sum_hessian":[5.1633594E3,1.9471992E1,5.1438877E3,1.4646541E1,4.825453E0,1.1039022E3,4.0399854E3,5.4093637E0,9.237177E0,1.4557335E0,3.3697193E0,5.8052406E1,1.0458497E3,4.383703E1,3.9961484E3,2.952192E0,2.457172E0,8.062871E0,1.1743058E0,1.1955101E0,2.174209E0,2.6818747E1,3.1233658E1,9.1953345E2,1.2631634E2,4.967488E0,3.886954E1,2.709674E3,1.2864744E3],"tree_param":{"num_deleted":"0","num_feature":"11","num_nodes":"29","size_leaf_vector":"1"}},{"base_weights":[2.9262697E-4,1.9999778E-1,-5.9621865E-3,2.4980582E-1,-1.0242622E0,-2.7801666E-1,-3.6397844E-4,-5.9596963E-2,3.4315896E-1,1.7508619E-2,-1.3514563E-1,-3.3484098E-1,9.435981E-1,9.0383196E-1,-4.257671E-3,-6.1381873E-2,1.9159673E-2,7.5421736E-2,1.5702244E-2,-2.2560459E-2,-1.1939188E-1,1.4193867E-1,-2.1618506E-2,-1.7902248E-2,1.2559329E-1,5.3775E-2,-6.5053155E-4],"categories":[],"categories_nodes":[],"categories_segments":[],"categories_sizes":[],"default_left":[0,0,0,0,0,0,0,0,0,0,0,0,0,0,0,0,0,0,0,0,0,0,0,0,0,0,0],"id":13,"left_children":[1,3,5,7,9,11,13,15,17,-1,-1,19,21,23,25,-1,-1,-1,-1,-1,-1,-1,-1,-1,-1,-1,-1],"loss_changes":[6.4504476E0,9.8187895E0,7.625982E0,4.396303E0,2.719449E0,7.3241587E0,1.7280655E1,5.1248693E0,8.797745E0,0E0,0E0,8.852906E0,2.9275632E0,8.249119E0,5.957301E0,0E0,0E0,0E0,0E0,0E0,0E0,0E0,0E0,0E0,0E0,0E0,0E0],"parents":[2147483647,0,0,1,1,2,2,3,3,4,4,5,5,6,6,7,7,8,8,11,11,12,12,13,13,14,14],"right_children":[2,4,6,8,10,12,14,16,18,-1,-1,20,22,24,26,-1,-1,-1,-1,-1,-1,-1,-1,-1,-1,-1,-1],"split_conditions":[1.9026897E1,3.6344862E-1,1.9782656E1,1.7796156E1,1.88E1,3.9204112E-1,2.0166954E1,4.4755253E1,1.86865E1,1.7508619E-2,-1.3514563E-1,2.049819E1,2.1185446E1,4.265734E1,-3.0144276E1,-6.1381873E-2,1.9159673E-2,7.5421736E-2,1.5702244E-2,-2.2560459E-2,-1.1939188E-1,1.4193867E-1,-2.1618506E-2,-1.7902248E-2,1.2559329E-1,5.3775E-2,-6.5053155E-4],"split_indices":[7,10,7,6,1,10,7,8,3,0,0,0,3,8,9,0,0,0,0,0,0,0,0,0,0,0,0],"split_type":[0,0,0,0,0,0,0,0,0,0,0,0,0,0,0,0,0,0,0,0,0,0,0,0,0,0,0],"sum_hessian":[5.162045E3,1.5582584E2,5.006219E3,1.5049887E2,5.326972E0,9.995739E1,4.9062617E3,3.4967327E1,1.1553154E2,1.2414081E0,4.085564E0,9.62081E1,3.7492893E0,2.0045969E1,4.886216E3,1.0455409E1,2.4511919E1,3.5058167E1,8.047337E1,8.647495E1,9.733147E0,2.4998956E0,1.2493936E0,5.0393777E0,1.5006592E1,1.9194979E1,4.8670205E3],"tree_param":{"num_deleted":"0","num_feature":"11","num_nodes":"27","size_leaf_vector":"1"}},{"base_weights":[2.8471096E-4,1.4258027E-1,-7.3503456E-3,4.3394664E-1,-3.938607E-3,-3.9507765E-2,3.630641E-2,-1.02626406E-1,4.9230438E-1,-9.150581E-1,1.1492806E-1,-3.1931486E-2,-4.9822295E-1,1.6011947E-1,-9.1576885E-4,1.0510532E-1,2.663841E-2,6.1774492E-2,-1.1881328E-1,6.301469E-2,1.9581066E-3,-3.44911E-3,1.168276E-1,-3.66916E-2,-1.398398E-1,3.7597228E-2,-1.0342228E-2,-9.755998E-3,9.1158105E-3],"categories":[],"categories_nodes":[],"categories_segments":[],"categories_sizes":[],"default_left":[0,0,0,0,0,0,0,0,0,0,0,0,0,0,0,0,0,0,0,0,0,0,0,0,0,0,0,0,0],"id":14,"left_children":[1,3,5,7,9,11,13,-1,15,17,19,21,23,25,27,-1,-1,-1,-1,-1,-1,-1,-1,-1,-1,-1,-1,-1,-1],"loss_changes":[5.6090508E0,1.1225525E1,6.8803916E0,8.002438E0,1.9158691E1,9.7917185E0,9.580858E0,0E0,1.0484512E1,9.279057E0,7.6763945E0,8.572247E0,4.8985453E0,2.7374115E1,1.4240614E1,0E0,0E0,0E0,0E0,0E0,0E0,0E0,0E0,0E0,0E0,0E0,0E0,0E0,0E0],"parents":[2147483647,0,0,1,1,2,2,3,3,4,4,5,5,6,6,8,8,9,9,10,10,11,11,12,12,13,13,14,14],"right_children":[2,4,6,8,10,12,14,-1,16,18,20,22,24,26,28,-1,-1,-1,-1,-1,-1,-1,-1,-1,-1,-1,-1,-1,-1],"split_conditions":[2.3943657E1,-2.0085495E0,5.6626526E1,3.2703323E1,-1.2180094E0,1.3086569E1,1.6599193E-1,-1.02626406E-1,1.07199646E2,5.644836E6,6.354922E6,1.4298402E3,1.4298402E3,4.6695843E1,8.5855824E-1,1.0510532E-1,2.663841E-2,6.1774492E-2,-1.1881328E-1,6.301469E-2,1.9581066E-3,-3.44911E-3,1.168276E-1,-3.66916E-2,-1.398398E-1,3.7597228E-2,-1.0342228E-2,-9.755998E-3,9.1158105E-3],"split_indices":[8,9,8,5,10,9,9,0,1,4,4,6,6,7,9,0,0,0,0,0,0,0,0,0,0,0,0,0,0],"split_type":[0,0,0,0,0,0,0,0,0,0,0,0,0,0,0,0,0,0,0,0,0,0,0,0,0,0,0,0,0],"sum_hessian":[5.1608403E3,2.6191025E2,4.89893E3,8.698025E1,1.7493001E2,2.8210496E3,2.0778806E3,2.7052226E0,8.4275024E1,1.9414976E1,1.5551503E2,2.7762656E3,4.4784054E1,4.7952454E2,1.5983561E3,2.3212723E1,6.1062305E1,2.7449644E0,1.6670012E1,2.3409582E1,1.3210545E2,2.7713267E3,4.93899E0,4.031149E1,4.4725633E0,2.633787E2,2.1614586E2,7.797946E2,8.185615E2],"tree_param":{"num_deleted":"0","num_feature":"11","num_nodes":"29","size_leaf_vector":"1"}},{"base_weights":[2.6467576E-4,2.3416469E-1,-4.0829983E-3,3.9400226E-1,-1.5989195E-1,1.2434137E-3,-2.2528476E-1,8.407115E-1,1.7705446E-1,-3.0626237E-1,8.226337E-1,-3.8737315E-1,4.4660256E-3,-1.1478401E0,-1.5779227E-1,-3.1944152E-2,9.974693E-2,-5.2866697E-2,5.277684E-2,-6.337402E-2,3.848174E-2,1.0255315E-1,2.0973114E-2,-1.7485155E-3,-8.593372E-2,3.1988475E-2,2.2338263E-5,2.3384951E-2,-1.4398946E-1,6.996384E-2,-2.4846552E-2],"categories":[],"categories_nodes":[],"categories_segments":[],"categories_sizes":[],"default_left":[0,0,0,0,0,0,0,0,0,0,0,0,0,0,0,0,0,0,0,0,0,0,0,0,0,0,0,0,0,0,0],"id":15,"left_children":[1,3,5,7,9,11,13,15,17,19,21,23,25,27,29,-1,-1,-1,-1,-1,-1,-1,-1,-1,-1,-1,-1,-1,-1,-1,-1],"loss_changes":[5.2488422E0,5.995557E0,5.97072E0,6.373186E0,4.263133E0,6.1999345E0,7.238187E0,4.2710266E0,1.1804233E1,5.902631E0,2.6837373E-1,7.092812E0,6.56987E0,3.5502558E0,8.896341E0,0E0,0E0,0E0,0E0,0E0,0E0,0E0,0E0,0E0,0E0,0E0,0E0,0E0,0E0,0E0,0E0],"parents":[2147483647,0,0,1,1,2,2,3,3,4,4,5,5,6,6,7,7,8,8,9,9,10,10,11,11,12,12,13,13,14,14],"right_children":[2,4,6,8,10,12,14,16,18,20,22,24,26,28,30,-1,-1,-1,-1,-1,-1,-1,-1,-1,-1,-1,-1,-1,-1,-1,-1],"split_conditions":[1.8680355E1,7.81069E-2,8.400005E1,1.7147122E7,3.191828E-1,1.8824867E1,-9.35581E-2,-3.1985703E-1,2.3376836E7,1.7611553E1,1.8102299E1,1.8932375E1,1.9405525E1,5.644836E6,2.84271E-1,-3.1944152E-2,9.974693E-2,-5.2866697E-2,5.277684E-2,-6.337402E-2,3.848174E-2,1.0255315E-1,2.0973114E-2,-1.7485155E-3,-8.593372E-2,3.1988475E-2,2.2338263E-5,2.3384951E-2,-1.4398946E-1,6.996384E-2,-2.4846552E-2],"split_indices":[5,9,8,4,9,2,10,9,4,7,0,1,6,4,9,0,0,0,0,0,0,0,0,0,0,0,0,0,0,0,0],"split_type":[0,0,0,0,0,0,0,0,0,0,0,0,0,0,0,0,0,0,0,0,0,0,0,0,0,0,0,0,0,0,0],"sum_hessian":[5.159564E3,9.318993E1,5.066374E3,6.629816E1,2.6891777E1,4.9482183E3,1.181559E2,2.0732813E1,4.5565346E1,2.400409E1,2.8876863E0,3.9715366E1,4.908503E3,6.9635897E0,1.1119231E2,2.3443847E0,1.8388428E1,1.4958273E1,3.0607073E1,1.6342798E1,7.6612916E0,1.6636927E0,1.2239935E0,2.2846859E1,1.6868507E1,6.415971E1,4.8443433E3,1.2498635E0,5.713726E0,9.9917345E0,1.0120058E2],"tree_param":{"num_deleted":"0","num_feature":"11","num_nodes":"31","size_leaf_vector":"1"}},{"base_weights":[2.5457676E-4,-7.615531E-3,1.2700664E-1,-9.887406E-3,8.968684E-1,4.2054975E-1,1.9888142E-2,-5.913666E-3,-7.262732E-1,1.2066783E0,3.0831315E-2,5.7823527E-1,-4.8772377E-1,-1.6333906E-1,2.0342949E-1,-3.2841184E-4,-6.995237E-2,-1.1431744E-1,1.1872347E-2,4.3619912E-2,1.3316594E-1,7.072248E-2,-5.9382614E-2,1.9951573E-2,9.718446E-2,-1.0297903E-1,6.143857E-2,4.528076E-2,-3.2076556E-2,1.3270979E-2,7.88111E-2],"categories":[],"categories_nodes":[],"categories_segments":[],"categories_sizes":[],"default_left":[0,0,0,0,0,0,0,0,0,0,0,0,0,0,0,0,0,0,0,0,0,0,0,0,0,0,0,0,0,0,0],"id":16,"left_children":[1,3,5,7,9,11,13,15,17,19,21,23,25,27,29,-1,-1,-1,-1,-1,-1,-1,-1,-1,-1,-1,-1,-1,-1,-1,-1],"loss_changes":[5.147757E0,9.992964E0,9.477626E0,1.3795385E1,3.2319717E0,1.1826491E1,7.50153E0,8.792129E0,9.553045E0,2.8077316E-1,2.209975E0,1.0112532E1,8.080275E0,1.0978622E1,4.5011086E0,0E0,0E0,0E0,0E0,0E0,0E0,0E0,0E0,0E0,0E0,0E0,0E0,0E0,0E0,0E0,0E0],"parents":[2147483647,0,0,1,1,2,2,3,3,4,4,5,5,6,6,7,7,8,8,9,9,10,10,11,11,12,12,13,13,14,14],"right_children":[2,4,6,8,10,12,14,16,18,20,22,24,26,28,30,-1,-1,-1,-1,-1,-1,-1,-1,-1,-1,-1,-1,-1,-1,-1,-1],"split_conditions":[7.19E2,2.6320045E1,9.176E2,1.6496967E1,8.979594E1,7.3437355E1,5.6828186E1,6.8E2,2.2058368E7,2.5023973E1,1.1295535E7,9.343899E6,3.1440922E1,3.544312E1,1.4298402E3,-3.2841184E-4,-6.995237E-2,-1.1431744E-1,1.1872347E-2,4.3619912E-2,1.3316594E-1,7.072248E-2,-5.9382614E-2,1.9951573E-2,9.718446E-2,-1.0297903E-1,6.143857E-2,4.528076E-2,-3.2076556E-2,1.3270979E-2,7.88111E-2],"split_indices":[1,9,5,10,8,8,8,3,4,10,4,4,10,8,6,0,0,0,0,0,0,0,0,0,0,0,0,0,0,0,0],"split_type":[0,0,0,0,0,0,0,0,0,0,0,0,0,0,0,0,0,0,0,0,0,0,0,0,0,0,0,0,0,0,0],"sum_hessian":[5.158418E3,4.8577383E3,3.006798E2,4.8465537E3,1.1184463E1,7.9605675E1,2.2107414E2,4.8208213E3,2.573249E1,7.9479036E0,3.2365594E0,6.813936E1,1.1466317E1,1.1068683E2,1.1038731E2,4.803615E3,1.7206268E1,1.6994791E1,8.737699E0,1.7359989E0,6.2119045E0,1.490467E0,1.7460923E0,3.5494476E1,3.2644882E1,7.729985E0,3.7363324E0,2.2143555E1,8.8543274E1,9.957078E1,1.0816528E1],"tree_param":{"num_deleted":"0","num_feature":"11","num_nodes":"31","size_leaf_vector":"1"}},{"base_weights":[2.7529773E-4,4.260217E-2,-2.0300103E-2,-6.4403725E-1,5.8650874E-2,-5.526154E-1,-1.14650475E-2,8.751904E-1,-8.044794E-1,2.2567626E-2,3.969529E-1,4.3992364E-1,-7.0117074E-1,1.0364838E-1,-3.7521135E-2,3.4917854E-2,1.09322846E-1,2.7730301E-2,-1.1235304E-1,4.8895166E-3,-4.1450553E-2,4.760398E-2,-1.1093962E-1,-2.7659878E-2,1.0585964E-1,-4.9916927E-2,-1.1812144E-1,9.119839E-3,1.05087E-1,-1.1500877E-2,5.149428E-3],"categories":[],"categories_nodes":[],"categories_segments":[],"categories_sizes":[],"default_left":[0,0,0,0,0,0,0,0,0,0,0,0,0,0,0,0,0,0,0,0,0,0,0,0,0,0,0,0,0,0,0],"id":17,"left_children":[1,3,5,7,9,11,13,15,17,19,21,23,25,27,29,-1,-1,-1,-1,-1,-1,-1,-1,-1,-1,-1,-1,-1,-1,-1,-1],"loss_changes":[4.493185E0,1.8634645E1,1.6321138E1,1.011927E1,2.0132404E1,8.662676E0,1.0249948E1,9.6364975E-2,1.2549715E1,1.7188974E1,1.9465988E1,3.8350434E0,4.2266903E0,7.3428006E0,1.922439E1,0E0,0E0,0E0,0E0,0E0,0E0,0E0,0E0,0E0,0E0,0E0,0E0,0E0,0E0,0E0,0E0],"parents":[2147483647,0,0,1,1,2,2,3,3,4,4,5,5,6,6,7,7,8,8,9,9,10,10,11,11,12,12,13,13,14,14],"right_children":[2,4,6,8,10,12,14,16,18,20,22,24,26,28,30,-1,-1,-1,-1,-1,-1,-1,-1,-1,-1,-1,-1,-1,-1,-1,-1],"split_conditions":[3.8050655E1,-1.0630293E0,3.8526012E1,2.5554554E1,3.402958E1,5.1282063E1,3.6440662E1,2.6501778E1,-2.0085495E0,3.293E1,3.9758442E1,3.8607906E1,7.311828E1,1.2766344E3,4.7011867E-1,3.4917854E-2,1.09322846E-1,2.7730301E-2,-1.1235304E-1,4.8895166E-3,-4.1450553E-2,4.760398E-2,-1.1093962E-1,-2.7659878E-2,1.0585964E-1,-4.9916927E-2,-1.1812144E-1,9.119839E-3,1.05087E-1,-1.1500877E-2,5.149428E-3],"split_indices":[3,10,6,2,7,8,8,6,9,6,7,1,8,5,10,0,0,0,0,0,0,0,0,0,0,0,0,0,0,0,0],"split_type":[0,0,0,0,0,0,0,0,0,0,0,0,0,0,0,0,0,0,0,0,0,0,0,0,0,0,0,0,0,0,0],"sum_hessian":[5.1572954E3,1.6866067E3,3.4706887E3,3.7626736E1,1.64898E3,5.565911E1,3.4150298E3,3.1685793E0,3.4458157E1,1.4910151E3,1.5796477E2,6.9907355E0,4.8668373E1,6.297728E2,2.7852568E3,1.6908643E0,1.477715E0,7.877921E0,2.6580236E1,1.4071427E3,8.387252E1,1.507348E2,7.2299576E0,3.4954076E0,3.4953277E0,3.568995E1,1.2978424E1,6.2268475E2,7.0880957E0,1.4888905E3,1.2963665E3],"tree_param":{"num_deleted":"0","num_feature":"11","num_nodes":"31","size_leaf_vector":"1"}},{"base_weights":[2.480168E-4,4.662761E-1,-1.5440087E-3,7.43622E-1,-3.3068663E-1,-2.6143873E-1,2.6104036E-3,1.8300442E-2,1.142704E0,5.700574E-2,-7.585809E-1,5.7573044E-1,-4.701879E-1,4.1157684E-1,-4.4246963E-3,7.209325E-2,-7.76189E-2,1.2187493E-1,2.8151257E-2,-6.566604E-3,-9.899724E-2,1.8251361E-2,1.12828426E-1,4.943059E-2,-5.9325743E-2,8.001576E-2,3.3254336E-4,-1.2320083E-3,1.5204005E-2],"categories":[],"categories_nodes":[],"categories_segments":[],"categories_sizes":[],"default_left":[0,0,0,0,0,0,0,0,0,0,0,0,0,0,0,0,0,0,0,0,0,0,0,0,0,0,0,0,0],"id":18,"left_children":[1,3,5,7,9,11,13,15,17,-1,19,21,23,25,27,-1,-1,-1,-1,-1,-1,-1,-1,-1,-1,-1,-1,-1,-1],"loss_changes":[4.307582E0,4.613097E0,5.548589E0,4.3109064E0,2.665172E0,1.440057E1,1.4555665E1,4.0919595E0,2.8804684E-1,0E0,6.334672E-1,3.397923E0,8.04043E0,1.356979E1,6.1464057E0,0E0,0E0,0E0,0E0,0E0,0E0,0E0,0E0,0E0,0E0,0E0,0E0,0E0,0E0],"parents":[2147483647,0,0,1,1,2,2,3,3,4,4,5,5,6,6,7,7,8,8,10,10,11,11,12,12,13,13,14,14],"right_children":[2,4,6,8,10,12,14,16,18,-1,20,22,24,26,28,-1,-1,-1,-1,-1,-1,-1,-1,-1,-1,-1,-1,-1,-1],"split_conditions":[-3.0144276E1,3.8135628E1,-1.3775085E1,6.38E2,5.022531E6,4.8125198E2,-6.457517E0,5.181959E2,3.468938E7,5.700574E-2,9.1071063E2,4.4187878E2,-2.7423315E1,4.718276E2,7.19E2,7.209325E-2,-7.76189E-2,1.2187493E-1,2.8151257E-2,-6.566604E-3,-9.899724E-2,1.8251361E-2,1.12828426E-1,4.943059E-2,-5.9325743E-2,8.001576E-2,3.3254336E-4,-1.2320083E-3,1.5204005E-2],"split_indices":[9,8,9,0,4,1,10,3,4,0,6,6,10,6,1,0,0,0,0,0,0,0,0,0,0,0,0,0,0],"split_type":[0,0,0,0,0,0,0,0,0,0,0,0,0,0,0,0,0,0,0,0,0,0,0,0,0,0,0,0,0],"sum_hessian":[5.1560894E3,1.8757978E1,5.1373315E3,1.3965029E1,4.79295E0,7.985374E1,5.0574775E3,5.3277793E0,8.63725E0,1.4365933E0,3.3563566E0,1.5586705E1,6.426703E1,8.455575E1,4.972922E3,2.8764672E0,2.4513118E0,7.5549397E0,1.0823097E0,1.1616169E0,2.1947398E0,9.883539E0,5.7031665E0,6.9311595E0,5.733587E1,4.2829716E1,4.172603E1,4.734914E3,2.380078E2],"tree_param":{"num_deleted":"0","num_feature":"11","num_nodes":"29","size_leaf_vector":"1"}},{"base_weights":[2.9602976E-4,2.1185191E-1,-3.6004626E-3,8.5261464E-2,6.8244106E-1,1.2560107E-3,-2.0555049E-1,-1.2548175E-1,3.3007085E-1,9.9026E-1,3.2394716E-1,-2.6189039E-2,4.404338E-2,-2.882845E-2,-4.9761763E-1,-3.8303807E-2,1.7398546E-2,7.811607E-2,-1.7135216E-2,-2.5699003E-2,1.161321E-1,1.01451576E-1,-3.165056E-2,-1.9685382E-3,-4.4744436E-2,5.72667E-2,3.6501442E-3,4.6171695E-2,-2.8565174E-2,-1.24280825E-1,-2.2740671E-2],"categories":[],"categories_nodes":[],"categories_segments":[],"categories_sizes":[],"default_left":[0,0,0,0,0,0,0,0,0,0,0,0,0,0,0,0,0,0,0,0,0,0,0,0,0,0,0,0,0,0,0],"id":19,"left_children":[1,3,5,7,9,11,13,15,17,19,21,23,25,27,29,-1,-1,-1,-1,-1,-1,-1,-1,-1,-1,-1,-1,-1,-1,-1,-1],"loss_changes":[4.2510285E0,5.497791E0,4.9666424E0,3.8920949E0,1.8451309E0,5.809091E0,6.1236672E0,3.2161436E0,8.0059185E0,2.4477854E0,4.988702E0,8.248029E0,7.686041E0,9.599734E0,8.731874E0,0E0,0E0,0E0,0E0,0E0,0E0,0E0,0E0,0E0,0E0,0E0,0E0,0E0,0E0,0E0,0E0],"parents":[2147483647,0,0,1,1,2,2,3,3,4,4,5,5,6,6,7,7,8,8,9,9,10,10,11,11,12,12,13,13,14,14],"right_children":[2,4,6,8,10,12,14,16,18,20,22,24,26,28,30,-1,-1,-1,-1,-1,-1,-1,-1,-1,-1,-1,-1,-1,-1,-1,-1],"split_conditions":[1.8680355E1,1.8705E1,8.400005E1,5.2173912E1,1.9345266E1,5.6626526E1,3.3311344E7,2.2843138E7,7.892959E-2,9.230243E6,-4.3076515E-1,1.3086569E1,-6.457517E0,3.52E1,4.134726E7,-3.8303807E-2,1.7398546E-2,7.811607E-2,-1.7135216E-2,-2.5699003E-2,1.161321E-1,1.01451576E-1,-3.165056E-2,-1.9685382E-3,-4.4744436E-2,5.72667E-2,3.6501442E-3,4.6171695E-2,-2.8565174E-2,-1.24280825E-1,-2.2740671E-2],"split_indices":[5,6,8,8,7,8,4,4,10,4,10,9,10,0,4,0,0,0,0,0,0,0,0,0,0,0,0,0,0,0,0],"split_type":[0,0,0,0,0,0,0,0,0,0,0,0,0,0,0,0,0,0,0,0,0,0,0,0,0,0,0,0,0,0,0],"sum_hessian":[5.155051E3,9.2264755E1,5.062786E3,7.363722E1,1.8627537E1,4.944866E3,1.17919846E2,3.983384E1,3.380338E1,9.073955E0,9.553582E0,3.0127742E3,1.932092E3,7.415147E1,4.3768375E1,2.1265453E1,1.8568388E1,1.7501133E1,1.6302246E1,1.0338149E0,8.04014E0,4.3159003E0,5.2376823E0,2.9679985E3,4.4775467E1,2.6123644E1,1.9059684E3,2.5207012E1,4.8944458E1,1.0689462E1,3.307891E1],"tree_param":{"num_deleted":"0","num_feature":"11","num_nodes":"31","size_leaf_vector":"1"}},{"base_weights":[2.933334E-4,1.2209479E-1,-6.214935E-3,3.7887394E-1,-5.9434534E-3,-5.191577E-2,1.734832E-2,-9.774544E-2,4.3346328E-1,-8.112547E-1,9.87159E-2,-1.21963255E-1,6.1297968E-2,1.4244281E-2,7.652951E-1,9.566503E-2,2.2301203E-2,1.0573508E-1,-9.891097E-2,6.523213E-2,2.3809301E-3,-1.02415625E-2,-1.006464E-1,9.7989224E-2,2.8503987E-3,2.319797E-3,-2.2303956E-2,5.547684E-3,1.0057378E-1],"categories":[],"categories_nodes":[],"categories_segments":[],"categories_sizes":[],"default_left":[0,0,0,0,0,0,0,0,0,0,0,0,0,0,0,0,0,0,0,0,0,0,0,0,0,0,0,0,0],"id":20,"left_children":[1,3,5,7,9,11,13,-1,15,17,19,21,23,25,27,-1,-1,-1,-1,-1,-1,-1,-1,-1,-1,-1,-1,-1,-1],"loss_changes":[4.0870976E0,8.600346E0,5.2714176E0,6.867427E0,1.4870932E1,1.321368E1,7.488187E0,0E0,9.074568E0,7.789776E0,6.4617677E0,1.7689894E1,1.916671E1,6.84145E0,2.2193527E0,0E0,0E0,0E0,0E0,0E0,0E0,0E0,0E0,0E0,0E0,0E0,0E0,0E0,0E0],"parents":[2147483647,0,0,1,1,2,2,3,3,4,4,5,5,6,6,8,8,9,9,10,10,11,11,12,12,13,13,14,14],"right_children":[2,4,6,8,10,12,14,-1,16,18,20,22,24,26,28,-1,-1,-1,-1,-1,-1,-1,-1,-1,-1,-1,-1,-1,-1],"split_conditions":[2.3943657E1,-2.0085495E0,8.793252E6,3.2703323E1,-1.2180094E0,2.0382951E2,1.3797336E3,-9.774544E-2,1.07199646E2,3.109841E6,5.26202E6,1.9230429E2,2.2151294E2,8.297877E1,1.4298402E3,9.566503E-2,2.2301203E-2,1.0573508E-1,-9.891097E-2,6.523213E-2,2.3809301E-3,-1.02415625E-2,-1.006464E-1,9.7989224E-2,2.8503987E-3,2.319797E-3,-2.2303956E-2,5.547684E-3,1.0057378E-1],"split_indices":[8,9,4,5,10,6,7,0,1,4,4,2,7,8,6,0,0,0,0,0,0,0,0,0,0,0,0,0,0],"split_type":[0,0,0,0,0,0,0,0,0,0,0,0,0,0,0,0,0,0,0,0,0,0,0,0,0,0,0,0,0],"sum_hessian":[5.153855E3,2.6051874E2,4.8933364E3,8.602918E1,1.7448955E2,1.6642764E3,3.22906E3,2.6744387E0,8.3354744E1,1.9292236E1,1.5519731E2,1.0280963E3,6.3618E2,3.2167295E3,1.2330639E1,2.2893995E1,6.0460747E1,1.246897E0,1.804534E1,1.7577848E1,1.3761946E2,1.0069581E3,2.1138178E1,2.0933386E1,6.152466E2,3.100632E3,1.16097275E2,3.4314065E0,8.899233E0],"tree_param":{"num_deleted":"0","num_feature":"11","num_nodes":"29","size_leaf_vector":"1"}},{"base_weights":[3.0182314E-4,2.1051775E-1,-3.2874828E-3,-1.7253712E-1,5.4522854E-1,-6.0265753E-2,1.4222086E-2,5.638909E-1,-6.387936E-1,1.0123397E0,4.179354E-1,-4.8357155E-2,-9.6728647E-1,1.7614484E-1,7.4258493E-4,2.1231353E-2,1.2761949E-1,6.607377E-2,-8.376201E-2,1.3501154E-2,1.19894266E-1,-8.7451585E-2,5.3293496E-2,-6.8644397E-3,3.7765555E-2,1.5431334E-2,-1.4005838E-1,7.5743146E-2,8.849954E-3,-1.13299135E-2,1.9369103E-3],"categories":[],"categories_nodes":[],"categories_segments":[],"categories_sizes":[],"default_left":[0,0,0,0,0,0,0,0,0,0,0,0,0,0,0,0,0,0,0,0,0,0,0,0,0,0,0,0,0,0,0],"id":21,"left_children":[1,3,5,7,9,11,13,15,17,19,21,23,25,27,29,-1,-1,-1,-1,-1,-1,-1,-1,-1,-1,-1,-1,-1,-1,-1,-1],"loss_changes":[3.8887584E0,1.1187292E1,5.0564723E0,1.4474842E1,2.3367577E0,1.28216915E1,8.462112E0,3.852985E0,7.178197E0,1.3503056E0,6.140567E0,1.01982E1,7.693842E0,1.5112387E1,7.6070986E0,0E0,0E0,0E0,0E0,0E0,0E0,0E0,0E0,0E0,0E0,0E0,0E0,0E0,0E0,0E0,0E0],"parents":[2147483647,0,0,1,1,2,2,3,3,4,4,5,5,6,6,7,7,8,8,9,9,10,10,11,11,12,12,13,13,14,14],"right_children":[2,4,6,8,10,12,14,16,18,20,22,24,26,28,30,-1,-1,-1,-1,-1,-1,-1,-1,-1,-1,-1,-1,-1,-1,-1,-1],"split_conditions":[1.808518E6,2.0546889E2,6.513926E6,-2.4171026E-1,2.378193E2,1.3362812E3,-1.9059452E0,5.094341E1,5.9901543E1,-1.5816066E0,2.3738452E2,9.314607E2,-2.3853397E1,1.05521736E2,-4.1370314E-1,2.1231353E-2,1.2761949E-1,6.607377E-2,-8.376201E-2,1.3501154E-2,1.19894266E-1,-8.7451585E-2,5.3293496E-2,-6.8644397E-3,3.7765555E-2,1.5431334E-2,-1.4005838E-1,7.5743146E-2,8.849954E-3,-1.13299135E-2,1.9369103E-3],"split_indices":[4,0,4,9,0,7,10,8,0,10,6,7,9,5,10,0,0,0,0,0,0,0,0,0,0,0,0,0,0,0,0],"split_type":[0,0,0,0,0,0,0,0,0,0,0,0,0,0,0,0,0,0,0,0,0,0,0,0,0,0,0,0,0,0,0],"sum_hessian":[5.1519697E3,8.552207E1,5.0664478E3,4.010687E1,4.5415203E1,1.1903762E3,3.8760713E3,1.5467442E1,2.4639427E1,8.236812E0,3.717839E1,1.1759896E3,1.4386673E1,2.969451E2,3.5791262E3,1.1225066E1,4.2423763E0,2.961283E0,2.1678144E1,1.7469436E0,6.489868E0,2.4981215E0,3.4680267E1,1.123334E3,5.2655663E1,4.1885033E0,1.019817E1,3.790529E1,2.5903983E2,5.0179297E2,3.0773333E3],"tree_param":{"num_deleted":"0","num_feature":"11","num_nodes":"31","size_leaf_vector":"1"}},{"base_weights":[3.148532E-4,1.9410063E-1,-3.2787966E-3,-3.3063965E-3,4.9890387E-1,-1.3716964E-1,-2.1136294E-3,1.828403E-1,-4.1561788E-1,-6.0843194E-1,6.778092E-1,2.0593076E-3,-1.7542322E-1,-8.341473E-3,1.17351286E-1,1.1375598E-1,-6.693519E-2,-1.060596E-1,5.5842735E-2,-3.0762289E-2,7.8268275E-2,4.0962113E-4,-5.3100076E-2,-1.0087067E-1,-1.1583854E-2],"categories":[],"categories_nodes":[],"categories_segments":[],"categories_sizes":[],"default_left":[0,0,0,0,0,0,0,0,0,0,0,0,0,0,0,0,0,0,0,0,0,0,0,0,0],"id":22,"left_children":[1,3,5,7,9,-1,11,13,15,17,19,21,23,-1,-1,-1,-1,-1,-1,-1,-1,-1,-1,-1,-1],"loss_changes":[3.588573E0,5.6468573E0,8.063847E0,4.52255E0,7.7196693E0,0E0,3.656918E0,1.0809483E1,7.9835668E0,3.5771732E0,3.5713806E0,5.3639483E0,5.786032E0,0E0,0E0,0E0,0E0,0E0,0E0,0E0,0E0,0E0,0E0,0E0,0E0],"parents":[2147483647,0,0,1,1,2,2,3,3,4,4,6,6,7,7,8,8,9,9,10,10,11,11,12,12],"right_children":[2,4,6,8,10,-1,12,14,16,18,20,22,24,-1,-1,-1,-1,-1,-1,-1,-1,-1,-1,-1,-1],"split_conditions":[1.88E1,1.8140327E1,1.8141832E1,7.892959E-2,2.9310263E1,-1.3716964E-1,8.400005E1,5.4198467E1,4.1891872E1,3.2837536E7,7.992384E6,1.4553845E3,-9.35581E-2,-8.341473E-3,1.17351286E-1,1.1375598E-1,-6.693519E-2,-1.060596E-1,5.5842735E-2,-3.0762289E-2,7.8268275E-2,4.0962113E-4,-5.3100076E-2,-1.0087067E-1,-1.1583854E-2],"split_indices":[1,3,6,10,8,0,8,8,8,4,4,3,10,0,0,0,0,0,0,0,0,0,0,0,0],"split_type":[0,0,0,0,0,0,0,0,0,0,0,0,0,0,0,0,0,0,0,0,0,0,0,0,0],"sum_hessian":[5.151133E3,9.282051E1,5.058312E3,5.693529E1,3.588522E1,3.3026469E0,5.0550093E3,3.960936E1,1.7325932E1,4.6573935E0,3.1227827E1,4.937122E3,1.1788758E2,3.1940714E1,7.6686473E0,1.9438428E0,1.538209E1,3.4223013E0,1.2350919E0,2.8177638E0,2.8410063E1,4.919317E3,1.7805143E1,6.804108E0,1.1108347E2],"tree_param":{"num_deleted":"0","num_feature":"11","num_nodes":"25","size_leaf_vector":"1"}},{"base_weights":[2.6400737E-4,-9.485228E-3,7.117896E-2,8.493939E-4,-1.9096266E-1,5.4505134E-1,2.5658846E-2,-9.656422E-3,1.6866039E-1,-4.0390915E-1,-5.168708E-2,-8.2181114E-1,7.3077416E-1,4.143294E-1,-2.5715634E-2,7.4478117E-4,-1.5234822E-2,2.7299855E-2,-3.2930326E-2,-6.055752E-3,-8.9748085E-2,-2.0041233E-2,3.8316764E-2,3.2928977E-2,-1.5329707E-1,8.2623914E-2,-9.976182E-2,9.199702E-2,1.6899945E-2,-3.144351E-2,5.8451085E-3],"categories":[],"categories_nodes":[],"categories_segments":[],"categories_sizes":[],"default_left":[0,0,0,0,0,0,0,0,0,0,0,0,0,0,0,0,0,0,0,0,0,0,0,0,0,0,0,0,0,0,0],"id":23,"left_children":[1,3,5,7,9,11,13,15,17,19,21,23,25,27,29,-1,-1,-1,-1,-1,-1,-1,-1,-1,-1,-1,-1,-1,-1,-1,-1],"loss_changes":[3.5619407E0,8.494996E0,1.3417761E1,7.558386E0,7.2169743E0,1.4441711E1,1.1375516E1,9.848451E0,1.32136135E1,1.6274334E1,9.693125E0,6.229253E0,8.831837E0,8.094635E0,1.2257456E1,0E0,0E0,0E0,0E0,0E0,0E0,0E0,0E0,0E0,0E0,0E0,0E0,0E0,0E0,0E0,0E0],"parents":[2147483647,0,0,1,1,2,2,3,3,4,4,5,5,6,6,7,7,8,8,9,9,10,10,11,11,12,12,13,13,14,14],"right_children":[2,4,6,8,10,12,14,16,18,20,22,24,26,28,30,-1,-1,-1,-1,-1,-1,-1,-1,-1,-1,-1,-1,-1,-1,-1,-1],"split_conditions":[3.6649816E0,1.5495465E0,1.5948364E2,9.636038E-1,1.5415009E2,8.2687546E1,3.8607213E0,5.138863E-1,2.3876193E0,7.598434E1,1.6710115E7,3.5153005E0,1.9516336E1,3.3109036E2,3.2583313E2,7.4478117E-4,-1.5234822E-2,2.7299855E-2,-3.2930326E-2,-6.055752E-3,-8.9748085E-2,-2.0041233E-2,3.8316764E-2,3.2928977E-2,-1.5329707E-1,8.2623914E-2,-9.976182E-2,9.199702E-2,1.6899945E-2,-3.144351E-2,5.8451085E-3],"split_indices":[9,9,7,10,3,0,10,9,10,7,4,10,9,1,5,0,0,0,0,0,0,0,0,0,0,0,0,0,0,0,0],"split_type":[0,0,0,0,0,0,0,0,0,0,0,0,0,0,0,0,0,0,0,0,0,0,0,0,0,0,0,0,0,0,0],"sum_hessian":[5.1500527E3,4.5283687E3,6.2168414E2,4.285327E3,2.4304182E2,5.3523304E1,5.681608E2,4.033737E3,2.5158987E2,9.535222E1,1.476896E2,5.992851E0,4.7530453E1,6.550696E1,5.026539E2,3.6028206E3,4.309164E2,2.0837987E2,4.321E1,5.6895638E1,3.845658E1,1.1045267E2,3.723694E1,2.4936054E0,3.4992454E0,4.553724E1,1.993214E0,2.0501705E1,4.5005257E1,1.1283996E2,3.8981393E2],"tree_param":{"num_deleted":"0","num_feature":"11","num_nodes":"31","size_leaf_vector":"1"}},{"base_weights":[2.1621704E-4,-2.0935815E-2,3.162628E-2,-3.1169638E-2,2.3896818E-1,1.378588E-1,-2.1241335E-4,-2.9568836E-2,-1.3778873E-1,3.3930665E-1,-4.6596888E-1,3.2460135E-1,-8.869721E-2,-8.060736E-2,7.661808E-2,4.1724513E-3,-5.429517E-3,2.9253323E-2,1.4282279E-1,3.0749757E-2,-8.90383E-2,3.8134728E-2,-2.353528E-2,-1.1382468E-1,-2.3174158E-3,-2.067939E-3,-3.591826E-2,-2.8224403E-2,1.2553214E-2],"categories":[],"categories_nodes":[],"categories_segments":[],"categories_sizes":[],"default_left":[0,0,0,0,0,0,0,0,0,0,0,0,0,0,0,0,0,0,0,0,0,0,0,0,0,0,0,0,0],"id":24,"left_children":[1,3,5,7,9,11,13,15,-1,17,19,21,23,25,27,-1,-1,-1,-1,-1,-1,-1,-1,-1,-1,-1,-1,-1,-1],"loss_changes":[3.4219303E0,8.193946E0,7.0104127E0,6.34511E0,8.413677E0,2.024974E1,9.862561E0,5.2195835E0,0E0,4.815593E0,5.186122E0,8.421516E0,1.4878753E1,1.3018525E1,1.436705E1,0E0,0E0,0E0,0E0,0E0,0E0,0E0,0E0,0E0,0E0,0E0,0E0,0E0,0E0],"parents":[2147483647,0,0,1,1,2,2,3,3,4,4,5,5,6,6,7,7,9,9,10,10,11,11,12,12,13,13,14,14],"right_children":[2,4,6,8,10,12,14,16,-1,18,20,22,24,26,28,-1,-1,-1,-1,-1,-1,-1,-1,-1,-1,-1,-1,-1,-1],"split_conditions":[5.6626526E1,5.770446E7,1.6599193E-1,1.4553845E3,2.25E2,4.6695843E1,8.5855824E-1,3.4782635E1,-1.3778873E-1,2.073767E2,3.428567E1,4.5758824E7,4.888773E1,6.690611E1,6.121218E1,4.1724513E-3,-5.429517E-3,2.9253323E-2,1.4282279E-1,3.0749757E-2,-8.90383E-2,3.8134728E-2,-2.353528E-2,-1.1382468E-1,-2.3174158E-3,-2.067939E-3,-3.591826E-2,-2.8224403E-2,1.2553214E-2],"split_indices":[8,4,9,3,3,7,9,8,0,2,8,4,6,6,6,0,0,0,0,0,0,0,0,0,0,0,0,0,0],"split_type":[0,0,0,0,0,0,0,0,0,0,0,0,0,0,0,0,0,0,0,0,0,0,0,0,0,0,0,0,0],"sum_hessian":[5.1485137E3,3.0768486E3,2.071665E3,2.961133E3,1.15715706E2,4.7695023E2,1.5947147E3,2.9586382E3,2.494888E0,1.0175141E2,1.3964297E1,2.6121042E2,2.157398E2,7.7925653E2,8.1545825E2,7.617112E2,2.196927E3,9.877719E1,2.9742227E0,5.045212E0,8.9190855E0,2.3746465E2,2.3745771E1,1.1715117E1,2.0402469E2,6.4218243E2,1.3707405E2,9.724462E1,7.182136E2],"tree_param":{"num_deleted":"0","num_feature":"11","num_nodes":"29","size_leaf_vector":"1"}},{"base_weights":[1.6436158E-4,4.1815126E-1,-1.409134E-3,6.803628E-1,-3.1046453E-1,-2.4119712E-1,2.4280283E-3,-5.9097796E-3,1.0732943E0,5.2898336E-2,-7.010109E-1,5.174828E-1,-4.284155E-1,3.5563582E-1,-3.588909E-3,6.61644E-2,-7.396757E-2,1.148875E-1,2.5004884E-2,-6.3024512E-3,-9.11531E-2,1.5487039E-2,1.0324662E-1,-1.21333925E-2,-8.081208E-2,7.193577E-2,-1.987902E-3,-1.033299E-3,1.3032478E-2],"categories":[],"categories_nodes":[],"categories_segments":[],"categories_sizes":[],"default_left":[0,0,0,0,0,0,0,0,0,0,0,0,0,0,0,0,0,0,0,0,0,0,0,0,0,0,0,0,0],"id":25,"left_children":[1,3,5,7,9,11,13,15,17,-1,19,21,23,25,27,-1,-1,-1,-1,-1,-1,-1,-1,-1,-1,-1,-1,-1,-1],"loss_changes":[3.3863347E0,3.9003513E0,4.720306E0,3.9198484E0,2.2712414E0,1.1698669E1,1.0733135E1,3.5648174E0,2.8729725E-1,0E0,5.316608E-1,2.9111633E0,7.522483E0,1.1568135E1,4.4863987E0,0E0,0E0,0E0,0E0,0E0,0E0,0E0,0E0,0E0,0E0,0E0,0E0,0E0,0E0],"parents":[2147483647,0,0,1,1,2,2,3,3,4,4,5,5,6,6,7,7,8,8,10,10,11,11,12,12,13,13,14,14],"right_children":[2,4,6,8,10,12,14,16,18,-1,20,22,24,26,28,-1,-1,-1,-1,-1,-1,-1,-1,-1,-1,-1,-1,-1,-1],"split_conditions":[-3.0144276E1,3.8135628E1,-1.3775085E1,6.9145E2,5.022531E6,4.8125198E2,-6.457517E0,5.181959E2,-1.806992E1,5.2898336E-2,9.1071063E2,4.4187878E2,-1.9172281E1,4.718276E2,7.19E2,6.61644E-2,-7.396757E-2,1.148875E-1,2.5004884E-2,-6.3024512E-3,-9.11531E-2,1.5487039E-2,1.0324662E-1,-1.21333925E-2,-8.081208E-2,7.193577E-2,-1.987902E-3,-1.033299E-3,1.3032478E-2],"split_indices":[9,8,9,6,4,1,10,3,10,0,6,6,9,6,1,0,0,0,0,0,0,0,0,0,0,0,0,0,0],"split_type":[0,0,0,0,0,0,0,0,0,0,0,0,0,0,0,0,0,0,0,0,0,0,0,0,0,0,0,0,0],"sum_hessian":[5.1468525E3,1.8309574E1,5.128543E3,1.3512846E1,4.7967277E0,7.980166E1,5.048741E3,5.2785597E0,8.234286E0,1.4105005E0,3.3862271E0,1.5445711E1,6.435595E1,8.359207E1,4.965149E3,2.8154528E0,2.463107E0,7.1795955E0,1.0546904E0,1.162529E0,2.2236981E0,9.827004E0,5.618706E0,3.6310146E1,2.80458E1,4.1997673E1,4.1594402E1,4.727965E3,2.371841E2],"tree_param":{"num_deleted":"0","num_feature":"11","num_nodes":"29","size_leaf_vector":"1"}},{"base_weights":[1.9693236E-4,1.9669531E-1,-3.153073E-3,-1.7891608E-1,4.763198E-1,2.4390798E-2,-3.108894E-2,5.2366406E-1,-6.5504116E-1,-5.5993207E-2,5.193178E-1,-1.4391835E-3,6.9803494E-1,1.3310194E-1,-5.3645305E-2,7.7930726E-2,-3.502711E-2,6.176073E-2,-8.748829E-2,6.0314406E-2,-6.3575767E-3,1.4006733E-3,-3.7057955E-2,8.409761E-2,-2.4061985E-2,2.480863E-2,-3.2546644E-3,1.2939188E-1,-5.866288E-3],"categories":[],"categories_nodes":[],"categories_segments":[],"categories_sizes":[],"default_left":[0,0,0,0,0,0,0,0,0,0,0,0,0,0,0,0,0,0,0,0,0,0,0,0,0,0,0,0,0],"id":26,"left_children":[1,3,5,7,9,11,13,15,17,-1,19,21,23,25,27,-1,-1,-1,-1,-1,-1,-1,-1,-1,-1,-1,-1,-1,-1],"loss_changes":[3.3884475E0,9.147868E0,3.895214E0,1.2904063E1,2.5068674E0,4.4355476E1,9.314882E0,3.7858644E0,6.9267063E0,0E0,2.3970766E0,1.4008268E1,1.2832481E1,5.7954054E0,1.5021192E1,0E0,0E0,0E0,0E0,0E0,0E0,0E0,0E0,0E0,0E0,0E0,0E0,0E0,0E0],"parents":[2147483647,0,0,1,1,2,2,3,3,4,4,5,5,6,6,7,7,8,8,10,10,11,11,12,12,13,13,14,14],"right_children":[2,4,6,8,10,12,14,16,18,-1,20,22,24,26,28,-1,-1,-1,-1,-1,-1,-1,-1,-1,-1,-1,-1,-1,-1],"split_conditions":[1.808518E6,1.9353502E2,6.3544716E1,-2.4171026E-1,2.8571323E1,6.121218E1,3.166664E1,1.5788956E2,5.9901543E1,-5.5993207E-2,6.707958E1,5.8130283E1,2.6537392E7,-1.6068019E0,6.0755978E1,7.7930726E-2,-3.502711E-2,6.176073E-2,-8.748829E-2,6.0314406E-2,-6.3575767E-3,1.4006733E-3,-3.7057955E-2,8.409761E-2,-2.4061985E-2,2.480863E-2,-3.2546644E-3,1.2939188E-1,-5.866288E-3],"split_indices":[4,6,7,9,8,6,8,0,0,0,8,2,4,9,2,0,0,0,0,0,0,0,0,0,0,0,0,0,0],"split_type":[0,0,0,0,0,0,0,0,0,0,0,0,0,0,0,0,0,0,0,0,0,0,0,0,0,0,0,0,0],"sum_hessian":[5.1455576E3,8.528615E1,5.0602715E3,3.6549896E1,4.873625E1,2.5480764E3,2.5121948E3,1.4723599E1,2.1826298E1,1.4627072E0,4.7273544E1,2.4549429E3,9.313363E1,3.0284482E2,2.2093499E3,1.1475166E1,3.2484334E0,2.9484727E0,1.8877825E1,4.12995E1,5.9740453E0,2.3572698E3,9.767303E1,8.091563E1,1.2218007E1,1.7846579E2,1.24379036E2,7.242947E0,2.202107E3],"tree_param":{"num_deleted":"0","num_feature":"11","num_nodes":"29","size_leaf_vector":"1"}},{"base_weights":[2.1583644E-4,1.7732003E-1,-2.9815175E-3,6.2063385E-2,6.1711603E-1,-3.4025303E-1,-2.1604075E-4,-1.266569E-1,2.673405E-1,9.094973E-1,2.8984177E-1,-1.7510709E-1,-1.3297752E0,3.711301E-3,-1.6347873E-1,1.1732536E-3,-6.585479E-2,6.401598E-2,-1.435402E-2,-2.487992E-2,1.0819165E-1,9.635139E-2,-3.13947E-2,-9.540917E-2,4.182336E-3,-1.5445797E-1,-3.0487511E-2,-1.4101687E-3,5.9607113E-3,-2.0255601E-2,8.9167446E-2],"categories":[],"categories_nodes":[],"categories_segments":[],"categories_sizes":[],"default_left":[0,0,0,0,0,0,0,0,0,0,0,0,0,0,0,0,0,0,0,0,0,0,0,0,0,0,0,0,0,0,0],"id":27,"left_children":[1,3,5,7,9,11,13,15,17,19,21,23,25,27,29,-1,-1,-1,-1,-1,-1,-1,-1,-1,-1,-1,-1,-1,-1,-1,-1],"loss_changes":[2.9142482E0,4.587803E0,4.7150354E0,2.8783274E0,1.5390816E0,6.4856524E0,3.2162497E0,2.8735547E0,5.528554E0,2.1628966E0,4.5152097E0,6.1883526E0,7.902479E-1,4.8779383E0,5.039002E0,0E0,0E0,0E0,0E0,0E0,0E0,0E0,0E0,0E0,0E0,0E0,0E0,0E0,0E0,0E0,0E0],"parents":[2147483647,0,0,1,1,2,2,3,3,4,4,5,5,6,6,7,7,8,8,9,9,10,10,11,11,12,12,13,13,14,14],"right_children":[2,4,6,8,10,12,14,16,18,20,22,24,26,28,30,-1,-1,-1,-1,-1,-1,-1,-1,-1,-1,-1,-1,-1,-1,-1,-1],"split_conditions":[1.8680355E1,1.8705E1,1.8824867E1,5.094341E1,1.9345266E1,1.8944942E1,8.400005E1,1.9186787E1,7.892959E-2,9.230243E6,-4.3076515E-1,3.1976763E1,1.891587E1,6.3716827E1,1.212346E3,1.1732536E-3,-6.585479E-2,6.401598E-2,-1.435402E-2,-2.487992E-2,1.0819165E-1,9.635139E-2,-3.13947E-2,-9.540917E-2,4.182336E-3,-1.5445797E-1,-3.0487511E-2,-1.4101687E-3,5.9607113E-3,-2.0255601E-2,8.9167446E-2],"split_indices":[5,6,2,8,7,3,8,7,10,4,10,8,5,8,0,0,0,0,0,0,0,0,0,0,0,0,0,0,0,0,0],"split_type":[0,0,0,0,0,0,0,0,0,0,0,0,0,0,0,0,0,0,0,0,0,0,0,0,0,0,0,0,0,0,0],"sum_hessian":[5.144507E3,9.026371E1,5.054243E3,7.242462E1,1.7839088E1,4.0113003E1,5.0141304E3,3.7933598E1,3.4491028E1,8.482214E0,9.3568735E0,3.5384483E1,4.7285185E0,4.8973013E3,1.1682904E2,3.0877668E1,7.0559287E0,1.7790506E1,1.6700521E1,1.0416323E0,7.4405823E0,4.140909E0,5.215964E0,6.967272E0,2.8417213E1,3.4900086E0,1.2385101E0,3.7143518E3,1.1829493E3,1.13436005E2,3.3930368E0],"tree_param":{"num_deleted":"0","num_feature":"11","num_nodes":"31","size_leaf_vector":"1"}},{"base_weights":[1.8994791E-4,3.216401E-2,-1.7080128E-2,5.436353E-2,-1.9490583E-1,-8.908339E-1,-1.2619516E-2,-1.372038E-2,1.3829087E-1,-2.5958148E-1,5.186826E-1,4.6032354E-2,-1.2074218E0,4.625354E-1,-1.8005596E-2,-6.376637E-2,-7.484001E-5,7.314013E-3,4.189534E-2,-7.8399904E-2,-1.8336263E-2,-2.7493363E-2,7.6497085E-2,-5.492996E-2,1.0834203E-1,2.390402E-2,-1.3845918E-1,5.9009355E-2,-3.686552E-2,-5.7438314E-3,3.8323663E-3],"categories":[],"categories_nodes":[],"categories_segments":[],"categories_sizes":[],"default_left":[0,0,0,0,0,0,0,0,0,0,0,0,0,0,0,0,0,0,0,0,0,0,0,0,0,0,0,0,0,0,0],"id":28,"left_children":[1,3,5,7,9,11,13,15,17,19,21,23,25,27,29,-1,-1,-1,-1,-1,-1,-1,-1,-1,-1,-1,-1,-1,-1,-1,-1],"loss_changes":[2.8412073E0,9.106648E0,1.30095825E1,9.399023E0,7.561445E0,5.0842485E0,8.517438E0,7.355851E0,1.3439523E1,5.780464E0,2.8893642E0,3.8346753E0,3.5878677E0,4.172699E0,7.3068395E0,0E0,0E0,0E0,0E0,0E0,0E0,0E0,0E0,0E0,0E0,0E0,0E0,0E0,0E0,0E0,0E0],"parents":[2147483647,0,0,1,1,2,2,3,3,4,4,5,5,6,6,7,7,8,8,9,9,10,10,11,11,12,12,13,13,14,14],"right_children":[2,4,6,8,10,12,14,16,18,20,22,24,26,28,30,-1,-1,-1,-1,-1,-1,-1,-1,-1,-1,-1,-1,-1,-1,-1,-1],"split_conditions":[4.0744183E1,5.035744E-1,3.9643555E1,5.3333347E1,8.441348E7,5.937493E1,1.4285808E1,1.2499983E1,3.0571394E1,2.3194813E1,4.326961E-1,4.062E1,1.2714961E7,2.8243808E7,4.7011867E-1,-6.376637E-2,-7.484001E-5,7.314013E-3,4.189534E-2,-7.8399904E-2,-1.8336263E-2,-2.7493363E-2,7.6497085E-2,-5.492996E-2,1.0834203E-1,2.390402E-2,-1.3845918E-1,5.9009355E-2,-3.686552E-2,-5.7438314E-3,3.8323663E-3],"split_indices":[1,9,6,8,4,8,8,8,6,7,10,5,4,4,10,0,0,0,0,0,0,0,0,0,0,0,0,0,0,0,0],"split_type":[0,0,0,0,0,0,0,0,0,0,0,0,0,0,0,0,0,0,0,0,0,0,0,0,0,0,0,0,0,0,0],"sum_hessian":[5.1433066E3,1.8034713E3,3.3398352E3,1.64355E3,1.5992131E2,1.5954343E1,3.3238809E3,9.0788666E2,7.356634E2,1.4721483E2,1.270649E1,4.245474E0,1.1708869E1,3.6303955E1,3.287577E3,1.7510017E1,8.9037665E2,5.9808856E2,1.3757483E2,1.7502708E1,1.2971211E2,2.9818254E0,9.724664E0,2.996406E0,1.2490678E0,1.2395598E0,1.0469309E1,3.1725311E1,4.578644E0,1.933812E3,1.3537648E3],"tree_param":{"num_deleted":"0","num_feature":"11","num_nodes":"31","size_leaf_vector":"1"}},{"base_weights":[1.5398371E-4,1.8000193E-1,-2.9031902E-3,-1.3257015E-1,4.5214966E-1,-6.3201815E-2,7.871172E-3,6.493845E-1,-4.5032793E-1,3.4567913E-1,1.0039413E0,6.480559E-1,-8.525686E-2,1.2629741E-1,-3.067543E-3,-2.8742446E-2,1.0569674E-1,8.96005E-2,-5.9023436E-2,8.884105E-2,1.794332E-2,1.24830164E-1,3.3582006E-2,7.8977026E-2,-8.010389E-3,-3.562498E-2,-5.6757415E-3,7.6155335E-2,4.774036E-3,-6.366799E-3,2.8052516E-3],"categories":[],"categories_nodes":[],"categories_segments":[],"categories_sizes":[],"default_left":[0,0,0,0,0,0,0,0,0,0,0,0,0,0,0,0,0,0,0,0,0,0,0,0,0,0,0,0,0,0,0],"id":29,"left_children":[1,3,5,7,9,11,13,15,17,19,21,23,25,27,29,-1,-1,-1,-1,-1,-1,-1,-1,-1,-1,-1,-1,-1,-1,-1,-1],"loss_changes":[2.8284452E0,7.374216E0,3.2867813E0,1.0428342E1,2.3666477E0,1.2085941E1,5.5608788E0,4.9607387E0,6.1036596E0,3.4717565E0,7.1481323E-1,2.4554682E0,5.731578E0,1.8077497E1,7.4141088E0,0E0,0E0,0E0,0E0,0E0,0E0,0E0,0E0,0E0,0E0,0E0,0E0,0E0,0E0,0E0,0E0],"parents":[2147483647,0,0,1,1,2,2,3,3,4,4,5,5,6,6,7,7,8,8,9,9,10,10,11,11,12,12,13,13,14,14],"right_children":[2,4,6,8,10,12,14,16,18,20,22,24,26,28,30,-1,-1,-1,-1,-1,-1,-1,-1,-1,-1,-1,-1,-1,-1,-1,-1],"split_conditions":[1.808518E6,2.0546889E2,4.89162E6,-3.5662186E-1,5.428565E2,2.2784952E1,-1.9059452E0,4.1237076E1,5.784777E1,2.378193E2,6.7152357E0,4.435983E6,6.0568108E1,1.03E2,4.6774193E1,-2.8742446E-2,1.0569674E-1,8.96005E-2,-5.9023436E-2,8.884105E-2,1.794332E-2,1.24830164E-1,3.3582006E-2,7.8977026E-2,-8.010389E-3,-3.562498E-2,-5.6757415E-3,7.6155335E-2,4.774036E-3,-6.366799E-3,2.8052516E-3],"split_indices":[4,0,4,10,0,8,10,8,0,0,9,4,6,3,8,0,0,0,0,0,0,0,0,0,0,0,0,0,0,0,0],"split_type":[0,0,0,0,0,0,0,0,0,0,0,0,0,0,0,0,0,0,0,0,0,0,0,0,0,0,0,0,0,0,0],"sum_hessian":[5.142301E3,8.498374E1,5.057317E3,3.9792923E1,4.5190823E1,7.6593005E2,4.2913867E3,1.1196459E1,2.8596464E1,3.9244835E1,5.9459887E0,2.2182371E1,7.437477E2,3.6197516E2,3.9294119E3,3.4838376E0,7.7126207E0,2.1831808E0,2.6413284E1,8.183802E0,3.1061031E1,3.7178404E0,2.228148E0,1.8497734E1,3.6846356E0,6.9680046E1,6.740676E2,3.887952E1,3.2309564E2,1.3328641E3,2.5965476E3],"tree_param":{"num_deleted":"0","num_feature":"11","num_nodes":"31","size_leaf_vector":"1"}},{"base_weights":[2.3701316E-4,3.7875316E-1,-1.1565199E-3,6.22772E-1,-2.776004E-1,-2.2265226E-1,2.3835655E-3,-3.5729688E-2,1.015118E0,-8.7375574E-2,2.4765179E-1,2.3591854E-1,-4.9540165E-1,3.242529E-1,-3.0534745E-3,6.081897E-2,-7.219066E-2,1.0932869E-1,2.067053E-2,9.0485506E-2,-4.8191324E-2,9.691614E-2,-4.1839657E-3,-1.3212617E-1,-2.7574664E-2,3.9901767E-2,-1.1808252E-1,-9.080814E-4,1.1672907E-2],"categories":[],"categories_nodes":[],"categories_segments":[],"categories_sizes":[],"default_left":[0,0,0,0,0,0,0,0,0,0,0,0,0,0,0,0,0,0,0,0,0,0,0,0,0,0,0,0,0],"id":30,"left_children":[1,3,5,7,9,11,13,15,17,-1,19,21,23,25,27,-1,-1,-1,-1,-1,-1,-1,-1,-1,-1,-1,-1,-1,-1],"loss_changes":[2.7128143E0,3.1943388E0,4.018586E0,3.6689415E0,2.033947E0,1.0200719E1,8.829306E0,3.1853902E0,3.3294106E-1,0E0,2.2891681E0,6.302396E0,8.864882E0,9.901962E0,3.5833998E0,0E0,0E0,0E0,0E0,0E0,0E0,0E0,0E0,0E0,0E0,0E0,0E0,0E0,0E0],"parents":[2147483647,0,0,1,1,2,2,3,3,4,4,5,5,6,6,7,7,8,8,10,10,11,11,12,12,13,13,14,14],"right_children":[2,4,6,8,10,12,14,16,18,-1,20,22,24,26,28,-1,-1,-1,-1,-1,-1,-1,-1,-1,-1,-1,-1,-1,-1],"split_conditions":[-3.0144276E1,3.8135628E1,-1.3775085E1,6.38E2,4.0425556E1,6.0482153E2,-6.457517E0,5.181959E2,3.468938E7,-8.7375574E-2,1.1543528E3,-1.9172281E1,6.6371924E2,1.2603646E3,7.19E2,6.081897E-2,-7.219066E-2,1.0932869E-1,2.067053E-2,9.0485506E-2,-4.8191324E-2,9.691614E-2,-4.1839657E-3,-1.3212617E-1,-2.7574664E-2,3.9901767E-2,-1.1808252E-1,-9.080814E-4,1.1672907E-2],"split_indices":[9,8,9,0,8,7,10,3,4,0,3,9,7,6,1,0,0,0,0,0,0,0,0,0,0,0,0,0,0],"split_type":[0,0,0,0,0,0,0,0,0,0,0,0,0,0,0,0,0,0,0,0,0,0,0,0,0,0,0,0,0],"sum_hessian":[5.141192E3,1.7864933E1,5.1233267E3,1.3060478E1,4.8044543E0,7.9622444E1,5.043704E3,5.2156396E0,7.844838E0,1.9395685E0,2.8648858E0,2.9745937E1,4.9876507E1,8.280929E1,4.960895E3,2.7493036E0,2.466336E0,6.8318505E0,1.0129876E0,1.3807862E0,1.4840996E0,7.4883943E0,2.2257542E1,9.425037E0,4.045147E1,7.9590515E1,3.218774E0,4.724107E3,2.3678821E2],"tree_param":{"num_deleted":"0","num_feature":"11","num_nodes":"29","size_leaf_vector":"1"}},{"base_weights":[2.0956273E-4,4.443424E-2,-1.17870085E-2,-3.542173E-2,2.0540638E-1,-5.064485E-1,-7.3810806E-3,3.7463725E-2,-2.2266175E-1,1.1825362E0,1.8322843E-1,4.623025E-1,-9.2768997E-1,6.176898E-1,-1.1172946E-2,6.809279E-3,-8.409745E-2,-5.791499E-2,-1.4139085E-2,1.506133E-1,-1.294048E-2,1.2014905E-2,5.2025534E-2,1.3417187E-1,1.03135025E-2,-3.650177E-2,-1.494564E-1,-6.599137E-3,1.4137019E-1,-2.2706266E-2,-5.9134625E-5],"categories":[],"categories_nodes":[],"categories_segments":[],"categories_sizes":[],"default_left":[0,0,0,0,0,0,0,0,0,0,0,0,0,0,0,0,0,0,0,0,0,0,0,0,0,0,0,0,0,0,0],"id":31,"left_children":[1,3,5,7,9,11,13,15,17,19,21,23,25,27,29,-1,-1,-1,-1,-1,-1,-1,-1,-1,-1,-1,-1,-1,-1,-1,-1],"loss_changes":[2.728044E0,1.4111332E1,8.811637E0,1.0028483E1,7.6707544E0,1.4994758E1,9.511554E0,1.4300143E1,5.8826447E0,3.5463333E0,7.528654E0,3.489102E0,7.495329E0,1.3262009E1,9.107756E0,0E0,0E0,0E0,0E0,0E0,0E0,0E0,0E0,0E0,0E0,0E0,0E0,0E0,0E0,0E0,0E0],"parents":[2147483647,0,0,1,1,2,2,3,3,4,4,5,5,6,6,7,7,8,8,9,9,10,10,11,11,12,12,13,13,14,14],"right_children":[2,4,6,8,10,12,14,16,18,20,22,24,26,28,30,-1,-1,-1,-1,-1,-1,-1,-1,-1,-1,-1,-1,-1,-1,-1,-1],"split_conditions":[2.8618557E1,2.4154533E1,2.7527893E1,1.8039863E-1,2.2899252E1,5.599994E1,2.8145248E1,2.41607E1,1.4133157E7,4.5652237E1,2.7894846E1,3.2656413E-1,2.8719711E1,3.9204112E-1,3.1465126E1,6.809279E-3,-8.409745E-2,-5.791499E-2,-1.4139085E-2,1.506133E-1,-1.294048E-2,1.2014905E-2,5.2025534E-2,1.3417187E-1,1.03135025E-2,-3.650177E-2,-1.494564E-1,-6.599137E-3,1.4137019E-1,-2.2706266E-2,-5.9134625E-5],"split_indices":[1,7,7,10,3,8,7,3,4,8,6,10,5,10,0,0,0,0,0,0,0,0,0,0,0,0,0,0,0,0,0],"split_type":[0,0,0,0,0,0,0,0,0,0,0,0,0,0,0,0,0,0,0,0,0,0,0,0,0,0,0,0,0,0,0],"sum_hessian":[5.139984E3,1.0962003E3,4.0437837E3,7.332336E2,3.629667E2,3.4693863E1,4.0090898E3,5.283621E2,2.0487146E2,6.8942714E0,3.5607242E2,1.048454E1,2.4209322E1,2.3197481E1,3.9858923E3,5.114515E2,1.691062E1,3.689749E1,1.6797397E2,5.4114833E0,1.4827878E0,3.010779E2,5.4994526E1,2.2470462E0,8.2374935E0,1.2974703E1,1.1234619E1,1.2972618E1,1.0224862E1,1.8528014E2,3.8006123E3],"tree_param":{"num_deleted":"0","num_feature":"11","num_nodes":"31","size_leaf_vector":"1"}},{"base_weights":[2.1860783E-4,2.3365984E-2,-2.2567224E-2,1.2877933E-4,6.3125294E-1,-1.9463436E-1,-4.435082E-3,1.3760822E-2,-3.203741E-1,7.6157755E-1,-2.2133632E-1,1.3431807E0,-2.5408593E-1,4.8949826E-1,-1.7469712E-2,-1.5716115E-4,4.927684E-2,-2.4021704E-2,-1.447574E-1,4.823371E-2,1.1094304E-1,6.265371E-2,-5.034563E-2,5.2263618E-2,1.4869224E-1,-1.7389802E-2,-6.7693226E-2,5.5088844E-2,-1.15403466E-1,1.8794876E-2,-3.5225009E-3],"categories":[],"categories_nodes":[],"categories_segments":[],"categories_sizes":[],"default_left":[0,0,0,0,0,0,0,0,0,0,0,0,0,0,0,0,0,0,0,0,0,0,0,0,0,0,0,0,0,0,0],"id":32,"left_children":[1,3,5,7,9,11,13,15,17,19,21,23,25,27,29,-1,-1,-1,-1,-1,-1,-1,-1,-1,-1,-1,-1,-1,-1,-1,-1],"loss_changes":[2.7115498E0,3.6024166E1,8.082158E0,1.0740987E1,1.0601887E1,2.291969E1,1.5104917E1,1.7319391E1,8.71446E0,7.3981743E0,3.4788232E0,3.258114E-1,7.972823E0,6.721986E0,8.342358E0,0E0,0E0,0E0,0E0,0E0,0E0,0E0,0E0,0E0,0E0,0E0,0E0,0E0,0E0,0E0,0E0],"parents":[2147483647,0,0,1,1,2,2,3,3,4,4,5,5,6,6,7,7,8,8,9,9,10,10,11,11,12,12,13,13,14,14],"right_children":[2,4,6,8,10,12,14,16,18,20,22,24,26,28,30,-1,-1,-1,-1,-1,-1,-1,-1,-1,-1,-1,-1,-1,-1,-1,-1],"split_conditions":[6.3544716E1,6.121218E1,6.86774E1,5.8130283E1,2.6537392E7,-1.9059452E0,7.0929756E1,5.596516E1,1.673346E0,6.1038944E1,6.218E1,6.0568108E1,6.7415695E1,7.948721E1,2.881476E1,-1.5716115E-4,4.927684E-2,-2.4021704E-2,-1.447574E-1,4.823371E-2,1.1094304E-1,6.265371E-2,-5.034563E-2,5.2263618E-2,1.4869224E-1,-1.7389802E-2,-6.7693226E-2,5.5088844E-2,-1.15403466E-1,1.8794876E-2,-3.5225009E-3],"split_indices":[7,6,5,2,4,10,1,2,10,8,6,6,5,8,8,0,0,0,0,0,0,0,0,0,0,0,0,0,0,0,0],"split_type":[0,0,0,0,0,0,0,0,0,0,0,0,0,0,0,0,0,0,0,0,0,0,0,0,0,0,0,0,0,0,0],"sum_hessian":[5.139039E3,2.549282E3,2.589757E3,2.456384E3,9.2898E1,2.4595961E2,2.3437974E3,2.3570864E3,9.929758E1,8.067324E1,1.2224758E1,8.351113E0,2.3760849E2,5.9321438E1,2.284476E3,2.284945E3,7.21415E1,9.383772E1,5.459849E0,4.607386E1,3.459938E1,2.7473E0,9.477458E0,1.9359211E0,6.415192E0,2.0091798E2,3.6690514E1,5.782629E1,1.4951468E0,1.8098611E2,2.1034897E3],"tree_param":{"num_deleted":"0","num_feature":"11","num_nodes":"31","size_leaf_vector":"1"}},{"base_weights":[2.2603759E-4,-3.856629E-3,1.2653053E-1,1.7256697E-1,-6.9409655E-3,1.9911471E-1,-5.9904885E-1,-1.3509423E-1,4.002296E-1,1.083702E-2,-4.1435942E-2,7.096233E-2,3.6318853E-1,-1.6410649E-1,-1.8632825E-1,4.6805255E-2,-5.4992504E-2,3.0619353E-2,9.3669735E-2,1.4590226E-4,4.4102903E-2,-2.6618367E-2,8.4378546E-5,2.12407E-2,-4.196905E-2,1.5984787E-2,8.8534325E-2,8.629366E-2,-9.172916E-2],"categories":[],"categories_nodes":[],"categories_segments":[],"categories_sizes":[],"default_left":[0,0,0,0,0,0,0,0,0,0,0,0,0,0,0,0,0,0,0,0,0,0,0,0,0,0,0,0,0],"id":33,"left_children":[1,3,5,7,9,11,13,15,17,19,21,23,25,-1,27,-1,-1,-1,-1,-1,-1,-1,-1,-1,-1,-1,-1,-1,-1],"loss_changes":[2.6503432E0,2.7104318E0,8.5949745E0,6.0487614E0,3.0018554E0,3.0661564E0,6.095543E0,9.551378E0,2.2073197E0,1.30323515E1,1.581902E1,5.9052672E0,6.6796064E0,0E0,9.83407E0,0E0,0E0,0E0,0E0,0E0,0E0,0E0,0E0,0E0,0E0,0E0,0E0,0E0,0E0],"parents":[2147483647,0,0,1,1,2,2,3,3,4,4,5,5,6,6,7,7,8,8,9,9,10,10,11,11,12,12,14,14],"right_children":[2,4,6,8,10,12,14,16,18,20,22,24,26,-1,28,-1,-1,-1,-1,-1,-1,-1,-1,-1,-1,-1,-1,-1,-1],"split_conditions":[7.5346776E7,1.808518E6,1.0018977E1,1.9353502E2,9.060518E1,5.1028076E1,1.1346254E1,-2.4171026E-1,5.428565E2,8.731487E1,1.4286156E2,4.0744183E1,1.3249855E8,-1.6410649E-1,2.25E2,4.6805255E-2,-5.4992504E-2,3.0619353E-2,9.3669735E-2,1.4590226E-4,4.4102903E-2,-2.6618367E-2,8.4378546E-5,2.12407E-2,-4.196905E-2,1.5984787E-2,8.8534325E-2,8.629366E-2,-9.172916E-2],"split_indices":[4,4,10,6,3,7,10,9,0,7,7,1,4,0,3,0,0,0,0,0,0,0,0,0,0,0,0,0,0],"split_type":[0,0,0,0,0,0,0,0,0,0,0,0,0,0,0,0,0,0,0,0,0,0,0,0,0,0,0,0,0],"sum_hessian":[5.1377734E3,4.977839E3,1.599342E2,8.4585945E1,4.893253E3,1.4604955E2,1.388466E1,3.614565E1,4.8440296E1,3.229515E3,1.6637383E3,8.280553E1,6.3244022E1,3.094815E0,1.0789845E1,1.4677246E1,2.1468405E1,4.255219E1,5.8881063E0,3.1615967E3,6.791804E1,2.6258908E2,1.4011492E3,6.47163E1,1.8089224E1,4.645814E1,1.6785881E1,4.356188E0,6.4336576E0],"tree_param":{"num_deleted":"0","num_feature":"11","num_nodes":"29","size_leaf_vector":"1"}},{"base_weights":[2.166439E-4,1.6107212E-1,-2.7088497E-3,-1.7439099E-2,4.4187894E-1,-1.2905656E-1,-1.6352232E-3,1.6701709E-1,-3.7714767E-1,-5.2479976E-1,6.039697E-1,-3.0404216E-2,1.972307E-2,-3.0048607E-2,5.661873E-2,-1.22806445E-1,-2.1110221E-3,4.171312E-2,-1.0319133E-1,-2.8400779E-2,7.029438E-2,-1.1504819E-1,-2.3888352E-3,2.1823311E-2,-4.8980786E-4],"categories":[],"categories_nodes":[],"categories_segments":[],"categories_sizes":[],"default_left":[0,0,0,0,0,0,0,0,0,0,0,0,0,0,0,0,0,0,0,0,0,0,0,0,0],"id":34,"left_children":[1,3,5,7,9,-1,11,13,15,17,19,21,23,-1,-1,-1,-1,-1,-1,-1,-1,-1,-1,-1,-1],"loss_changes":[2.4182765E0,4.6089973E0,6.9765234E0,3.850264E0,5.9127445E0,0E0,3.0999103E0,7.340655E0,5.928825E0,3.135642E0,2.9284525E0,1.566046E1,1.4152689E1,0E0,0E0,0E0,0E0,0E0,0E0,0E0,0E0,0E0,0E0,0E0,0E0],"parents":[2147483647,0,0,1,1,2,2,3,3,4,4,6,6,7,7,8,8,9,9,10,10,11,11,12,12],"right_children":[2,4,6,8,10,-1,12,14,16,18,20,22,24,-1,-1,-1,-1,-1,-1,-1,-1,-1,-1,-1,-1],"split_conditions":[1.88E1,1.8140327E1,1.8141832E1,1.7758112E1,2.9310263E1,-1.2905656E-1,1.4225618E-2,1.693153E1,-3.1985703E-1,2.0276512E1,7.992384E6,1.9186787E1,1.0294468E-1,-3.0048607E-2,5.661873E-2,-1.22806445E-1,-2.1110221E-3,4.171312E-2,-1.0319133E-1,-2.8400779E-2,7.029438E-2,-1.1504819E-1,-2.3888352E-3,2.1823311E-2,-4.8980786E-4],"split_indices":[1,3,6,3,8,0,10,7,9,8,4,7,10,0,0,0,0,0,0,0,0,0,0,0,0],"split_type":[0,0,0,0,0,0,0,0,0,0,0,0,0,0,0,0,0,0,0,0,0,0,0,0,0],"sum_hessian":[5.1369814E3,9.079236E1,5.0461895E3,5.6079838E1,3.471252E1,3.2028346E0,5.0429863E3,3.742449E1,1.8655346E1,4.6633697E0,3.0049152E1,2.1485413E3,2.8944453E3,1.7350744E1,2.007375E1,4.7806077E0,1.3874738E1,1.6941096E0,2.9692602E0,2.8259282E0,2.7223223E1,1.141107E1,2.1371301E3,3.1851645E2,2.5759287E3],"tree_param":{"num_deleted":"0","num_feature":"11","num_nodes":"25","size_leaf_vector":"1"}},{"base_weights":[1.367611E-4,-1.2208107E-3,3.3578208E-1,8.500325E-4,-1.1538063E0,-1.10424004E-1,6.6455156E-1,-3.2115292E-3,2.4475786E-1,-1.3491715E-1,-8.678841E-3,1.2717177E0,2.2207187E-1,4.3041102E-5,-2.3337713E-2,7.720374E-2,-8.146367E-3,1.3758783E-1,3.97854E-2,-1.0302725E-1,7.8264885E-2],"categories":[],"categories_nodes":[],"categories_segments":[],"categories_sizes":[],"default_left":[0,0,0,0,0,0,0,0,0,0,0,0,0,0,0,0,0,0,0,0,0],"id":35,"left_children":[1,3,5,7,9,-1,11,13,15,-1,-1,17,19,-1,-1,-1,-1,-1,-1,-1,-1],"loss_changes":[2.341196E0,1.2215329E1,1.0532881E1,5.0622253E0,1.7962742E0,0E0,4.412375E0,4.2135854E0,1.445986E1,0E0,0E0,1.0386467E-1,8.753318E0,0E0,0E0,0E0,0E0,0E0,0E0,0E0,0E0],"parents":[2147483647,0,0,1,1,2,2,3,3,4,4,6,6,7,7,8,8,11,11,12,12],"right_children":[2,4,6,8,10,-1,12,14,16,-1,-1,18,20,-1,-1,-1,-1,-1,-1,-1,-1],"split_conditions":[1.4298402E3,1.4553845E3,1.3362812E3,2.5023973E1,7.311828E1,-1.10424004E-1,1.8147171E1,1.6496967E1,9.505E2,-1.3491715E-1,-8.678841E-3,1.3086569E1,2.898133E1,4.3041102E-5,-2.3337713E-2,7.720374E-2,-8.146367E-3,1.3758783E-1,3.97854E-2,-1.0302725E-1,7.8264885E-2],"split_indices":[6,3,7,10,8,0,10,10,6,0,0,9,9,0,0,0,0,0,0,0,0],"split_type":[0,0,0,0,0,0,0,0,0,0,0,0,0,0,0,0,0,0,0,0,0],"sum_hessian":[5.136104E3,5.1164062E3,1.9697771E1,5.1082275E3,8.178658E0,3.2228532E0,1.6474916E1,5.0255293E3,8.2698456E1,6.689428E0,1.4892297E0,6.1550083E0,1.0319909E1,4.948231E3,7.729837E1,3.1086311E1,5.1612144E1,4.986199E0,1.1688094E0,2.9319572E0,7.387952E0],"tree_param":{"num_deleted":"0","num_feature":"11","num_nodes":"21","size_leaf_vector":"1"}},{"base_weights":[1.18186865E-4,3.4918997E-1,-1.1391622E-3,-2.105651E-1,6.132422E-1,-2.8402987E-1,1.2487195E-3,5.652705E-1,-8.7947667E-1,1.0487866E0,-3.0219547E-2,5.0186485E-1,-4.5543385E-1,1.5861133E-1,-3.7337493E-3,8.175972E-2,1.3338353E-2,-1.4964677E-2,-1.2504457E-1,2.2995038E-2,1.15314536E-1,9.9401824E-2,-6.1168224E-2,1.3080995E-1,-8.118712E-3,-7.1339704E-2,5.392865E-4,-1.4755079E-1,2.065408E-2,-2.7404292E-3,2.2956638E-3],"categories":[],"categories_nodes":[],"categories_segments":[],"categories_sizes":[],"default_left":[0,0,0,0,0,0,0,0,0,0,0,0,0,0,0,0,0,0,0,0,0,0,0,0,0,0,0,0,0,0,0],"id":36,"left_children":[1,3,5,7,9,11,13,15,17,19,21,23,25,27,29,-1,-1,-1,-1,-1,-1,-1,-1,-1,-1,-1,-1,-1,-1,-1,-1],"loss_changes":[2.2549057E0,2.8544965E0,3.4584403E0,3.9506454E0,3.6146035E0,6.001248E0,3.9815269E0,2.9304647E-1,8.8632345E-1,3.8871288E-1,4.260248E0,3.9367414E0,4.248365E0,1.2511353E1,3.1105592E0,0E0,0E0,0E0,0E0,0E0,0E0,0E0,0E0,0E0,0E0,0E0,0E0,0E0,0E0,0E0,0E0],"parents":[2147483647,0,0,1,1,2,2,3,3,4,4,5,5,6,6,7,7,8,8,9,9,10,10,11,11,12,12,13,13,14,14],"right_children":[2,4,6,8,10,12,14,16,18,20,22,24,26,28,30,-1,-1,-1,-1,-1,-1,-1,-1,-1,-1,-1,-1,-1,-1,-1,-1],"split_conditions":[-3.0144276E1,6.9145E2,-1.806992E1,5.181959E2,3.7209305E1,-2.7423315E1,-5.187888E0,-2.7423315E1,2.2784952E1,6.272453E6,5.413599E6,6.116345E2,1.005E3,1.165E2,1.5269465E7,8.175972E-2,1.3338353E-2,-1.4964677E-2,-1.2504457E-1,2.2995038E-2,1.15314536E-1,9.9401824E-2,-6.1168224E-2,1.3080995E-1,-8.118712E-3,-7.1339704E-2,5.392865E-4,-1.4755079E-1,2.065408E-2,-2.7404292E-3,2.2956638E-3],"split_indices":[9,6,10,3,8,10,10,10,8,4,4,3,0,5,4,0,0,0,0,0,0,0,0,0,0,0,0,0,0,0,0],"split_type":[0,0,0,0,0,0,0,0,0,0,0,0,0,0,0,0,0,0,0,0,0,0,0,0,0,0,0,0,0,0,0],"sum_hessian":[5.1356646E3,1.7439001E1,5.1182256E3,5.6545925E0,1.17844095E1,4.1854088E1,5.076371E3,2.6897876E0,2.9648046E0,6.651947E0,5.132462E0,7.1487584E0,3.470533E1,1.548506E2,4.9215205E3,1.1341107E0,1.555677E0,1.4720824E0,1.4927223E0,1.1140635E0,5.5378838E0,1.601656E0,3.530806E0,2.4782867E0,4.6704717E0,2.1898712E1,1.2806618E1,3.563706E0,1.512869E2,2.6083032E3,2.3132175E3],"tree_param":{"num_deleted":"0","num_feature":"11","num_nodes":"31","size_leaf_vector":"1"}},{"base_weights":[1.2435287E-4,1.5979311E-1,-2.56986E-3,-1.2053473E-1,3.6685944E-1,2.5850508E-2,-1.9680105E-2,5.869942E-1,-4.201124E-1,-5.8151186E-2,4.0781304E-1,-5.8665025E-1,3.1869117E-2,-5.913431E-1,-7.89105E-3,-7.078878E-2,8.154632E-2,8.5822485E-2,-5.686615E-2,6.789889E-2,2.260734E-2,-1.00285985E-1,8.39338E-2,8.861732E-3,-3.1888366E-3,-3.740069E-2,-1.4560266E-1,2.741159E-2,-1.4804407E-3],"categories":[],"categories_nodes":[],"categories_segments":[],"categories_sizes":[],"default_left":[0,0,0,0,0,0,0,0,0,0,0,0,0,0,0,0,0,0,0,0,0,0,0,0,0,0,0,0,0],"id":37,"left_children":[1,3,5,7,9,11,13,15,17,-1,19,21,23,25,27,-1,-1,-1,-1,-1,-1,-1,-1,-1,-1,-1,-1,-1,-1],"loss_changes":[2.2097225E0,4.991955E0,2.4569633E0,8.081766E0,2.150844E0,7.0183606E0,2.1249607E1,3.9536788E0,5.530216E0,0E0,2.2032485E0,1.1838246E1,6.8094215E0,1.1428301E1,6.0303936E0,0E0,0E0,0E0,0E0,0E0,0E0,0E0,0E0,0E0,0E0,0E0,0E0,0E0,0E0],"parents":[2147483647,0,0,1,1,2,2,3,3,4,4,5,5,6,6,7,7,8,8,10,10,11,11,12,12,13,13,14,14],"right_children":[2,4,6,8,10,12,14,16,18,-1,20,22,24,26,28,-1,-1,-1,-1,-1,-1,-1,-1,-1,-1,-1,-1,-1,-1],"split_conditions":[1.808518E6,1.9353502E2,4.205E1,-3.5662186E-1,2.8571323E1,1.2499983E1,4.3294724E1,-2.0085495E0,5.784777E1,-5.8151186E-2,5.2E1,-2.3107989E-1,1.0294468E-1,5.790369E-1,4.6695843E1,-7.078878E-2,8.154632E-2,8.5822485E-2,-5.686615E-2,6.789889E-2,2.260734E-2,-1.00285985E-1,8.39338E-2,8.861732E-3,-3.1888366E-3,-3.740069E-2,-1.4560266E-1,2.741159E-2,-1.4804407E-3],"split_indices":[4,6,3,10,8,8,2,9,0,0,8,10,10,10,7,0,0,0,0,0,0,0,0,0,0,0,0,0,0],"split_type":[0,0,0,0,0,0,0,0,0,0,0,0,0,0,0,0,0,0,0,0,0,0,0,0,0,0,0,0,0],"sum_hessian":[5.1347656E3,8.423752E1,5.050528E3,3.5965317E1,4.82722E1,1.8977788E3,3.1527493E3,1.0412988E1,2.5552328E1,1.4518623E0,4.682034E1,1.752792E1,1.880251E3,6.2710182E1,3.090039E3,1.2470052E0,9.165983E0,2.1628208E0,2.3389507E1,1.768953E1,2.913081E1,1.3797506E1,3.7304142E0,9.946021E2,8.856488E2,5.1258907E1,1.1451273E1,7.30144E1,3.0170247E3],"tree_param":{"num_deleted":"0","num_feature":"11","num_nodes":"29","size_leaf_vector":"1"}},{"base_weights":[9.4749244E-5,-7.638267E-3,5.6415427E-2,1.9121114E-3,-1.7530273E-1,4.70186E-1,9.383723E-3,-7.899751E-3,1.3961628E-1,7.978376E-1,-2.0424792E-1,-6.85135E-1,6.0075825E-1,3.3656362E-1,-3.9158687E-2,8.0022897E-4,-1.7635508E-2,-4.2163663E-2,2.0970332E-2,2.8673317E-3,1.0857971E-1,-3.4837015E-2,-6.1646383E-4,3.2838542E-2,-1.3331883E-1,1.3263481E-2,8.8944234E-2,8.7759E-2,7.20171E-3,-5.47775E-2,2.0071124E-3],"categories":[],"categories_nodes":[],"categories_segments":[],"categories_sizes":[],"default_left":[0,0,0,0,0,0,0,0,0,0,0,0,0,0,0,0,0,0,0,0,0,0,0,0,0,0,0,0,0,0,0],"id":38,"left_children":[1,3,5,7,9,11,13,15,17,19,21,23,25,27,29,-1,-1,-1,-1,-1,-1,-1,-1,-1,-1,-1,-1,-1,-1,-1,-1],"loss_changes":[2.2367399E0,7.231112E0,1.2061316E1,5.7749248E0,7.0180764E0,9.954782E0,8.8715E0,1.0689827E1,1.1271337E1,1.5709987E0,6.7676115E0,4.963847E0,7.6350822E0,1.0265506E1,1.4669642E1,0E0,0E0,0E0,0E0,0E0,0E0,0E0,0E0,0E0,0E0,0E0,0E0,0E0,0E0,0E0,0E0],"parents":[2147483647,0,0,1,1,2,2,3,3,4,4,5,5,6,6,7,7,8,8,9,9,10,10,11,11,12,12,13,13,14,14],"right_children":[2,4,6,8,10,12,14,16,18,20,22,24,26,28,30,-1,-1,-1,-1,-1,-1,-1,-1,-1,-1,-1,-1,-1,-1,-1,-1],"split_conditions":[3.6649816E0,1.5495465E0,2.0010486E2,8.5855824E-1,-1.1622806E0,8.2687546E1,4.2141147E0,5.138863E-1,3.7982502E1,4.8125198E2,1.5565137E7,3.5153005E0,1.8533176E7,3.262211E2,2.3344644E2,8.0022897E-4,-1.7635508E-2,-4.2163663E-2,2.0970332E-2,2.8673317E-3,1.0857971E-1,-3.4837015E-2,-6.1646383E-4,3.2838542E-2,-1.3331883E-1,1.3263481E-2,8.8944234E-2,8.7759E-2,7.20171E-3,-5.47775E-2,2.0071124E-3],"split_indices":[9,9,0,9,10,0,10,9,6,1,4,10,4,3,7,0,0,0,0,0,0,0,0,0,0,0,0,0,0,0,0],"split_type":[0,0,0,0,0,0,0,0,0,0,0,0,0,0,0,0,0,0,0,0,0,0,0,0,0,0,0,0,0,0,0],"sum_hessian":[5.1336987E3,4.514682E3,6.190165E2,4.2723145E3,2.423678E2,6.2261513E1,5.5675494E2,3.9890261E3,2.8328824E2,6.2334905E0,2.3613431E2,5.890897E0,5.6370617E1,7.116481E1,4.8559015E2,3.6458167E3,3.432095E2,3.0891886E1,2.5239635E2,1.9975194E0,4.235971E0,1.3624553E2,9.988877E1,2.4899788E0,3.400918E0,2.2059265E1,3.431135E1,2.2609201E1,4.855561E1,4.9789665E1,4.358005E2],"tree_param":{"num_deleted":"0","num_feature":"11","num_nodes":"31","size_leaf_vector":"1"}},{"base_weights":[1.0872995E-4,-2.455138E-2,1.8611372E-2,1.4201972E-2,-1.3786127E-1,1.7307132E-1,-1.6035971E-3,2.3339938E-2,-6.805786E-1,-5.514751E-1,-6.720638E-2,2.717054E-1,-4.5273048E-1,-1.3307345E-1,1.7535608E-2,1.24815464E-1,1.9467128E-3,-1.0781069E-2,-1.37443E-1,-7.447519E-2,-2.6372317E-3,-4.807562E-2,-1.3612294E-4,3.2888915E-2,-4.050193E-2,-5.9557833E-2,9.378029E-2,5.6872056E-3,-3.8967356E-2,2.85032E-2,-1.5456979E-5],"categories":[],"categories_nodes":[],"categories_segments":[],"categories_sizes":[],"default_left":[0,0,0,0,0,0,0,0,0,0,0,0,0,0,0,0,0,0,0,0,0,0,0,0,0,0,0,0,0,0,0],"id":39,"left_children":[1,3,5,7,9,11,13,15,17,19,21,23,25,27,29,-1,-1,-1,-1,-1,-1,-1,-1,-1,-1,-1,-1,-1,-1,-1,-1],"loss_changes":[2.342481E0,9.6657915E0,9.158722E0,1.0433136E1,1.6356255E1,2.1076225E1,6.5311437E0,7.6623507E0,8.330023E0,8.272612E0,1.3076733E1,1.1505112E1,9.813594E0,1.6098827E1,1.0722113E1,0E0,0E0,0E0,0E0,0E0,0E0,0E0,0E0,0E0,0E0,0E0,0E0,0E0,0E0,0E0,0E0],"parents":[2147483647,0,0,1,1,2,2,3,3,4,4,5,5,6,6,7,7,8,8,9,9,10,10,11,11,12,12,13,13,14,14],"right_children":[2,4,6,8,10,12,14,16,18,20,22,24,26,28,30,-1,-1,-1,-1,-1,-1,-1,-1,-1,-1,-1,-1,-1,-1,-1,-1],"split_conditions":[1.4225618E-2,-1.8378304E-1,1.0294468E-1,1.2603646E3,-1.4710814E-1,6.699067E1,2.4808025E1,1.7611553E1,4.53125E1,-8.842422E-2,5.342217E6,4.3927196E7,6.5224564E-1,2.2247513E1,2.855E1,1.24815464E-1,1.9467128E-3,-1.0781069E-2,-1.37443E-1,-7.447519E-2,-2.6372317E-3,-4.807562E-2,-1.3612294E-4,3.2888915E-2,-4.050193E-2,-5.9557833E-2,9.378029E-2,5.6872056E-3,-3.8967356E-2,2.85032E-2,-1.5456979E-5],"split_indices":[10,10,10,6,10,2,6,7,8,9,4,4,9,5,3,0,0,0,0,0,0,0,0,0,0,0,0,0,0,0,0],"split_type":[0,0,0,0,0,0,0,0,0,0,0,0,0,0,0,0,0,0,0,0,0,0,0,0,0,0,0,0,0,0,0],"sum_hessian":[5.131898E3,2.1997583E3,2.93214E3,1.639801E3,5.5995715E2,3.3845874E2,2.5936812E3,1.6194677E3,2.0333328E1,8.070496E1,4.792522E2,2.928654E2,4.559336E1,3.2884518E2,2.264836E3,4.091854E0,1.6153759E3,1.1771469E1,8.561859E0,5.8685894E1,2.2019066E1,6.496006E1,4.1429214E2,2.7052023E2,2.234517E1,4.1864372E1,3.728987E0,1.8941277E2,1.3943242E2,1.3955078E2,2.1252852E3],"tree_param":{"num_deleted":"0","num_feature":"11","num_nodes":"31","size_leaf_vector":"1"}},{"base_weights":[7.6326054E-5,-5.0863805E-3,8.413161E-2,-7.116244E-3,8.1040233E-1,3.3889E-1,-8.108193E-3,-1.79186E-3,-4.4782802E-1,1.1130258E0,-1.4998436E-2,4.8961115E-1,-5.075499E-1,-4.532118E-1,6.138319E-2,-5.5223954E-4,4.8487242E-2,1.1970508E-2,-8.41771E-2,-6.529433E-3,1.360905E-1,9.834975E-2,-7.5735174E-2,1.5050202E-2,8.523961E-2,-9.836333E-2,4.724538E-2,1.0955057E-2,-9.66849E-2,-2.0297868E-2,1.4216271E-2],"categories":[],"categories_nodes":[],"categories_segments":[],"categories_sizes":[],"default_left":[0,0,0,0,0,0,0,0,0,0,0,0,0,0,0,0,0,0,0,0,0,0,0,0,0,0,0,0,0,0,0],"id":40,"left_children":[1,3,5,7,9,11,13,15,17,19,21,23,25,27,29,-1,-1,-1,-1,-1,-1,-1,-1,-1,-1,-1,-1,-1,-1,-1,-1],"loss_changes":[2.2270496E0,8.009379E0,6.9812E0,1.1318895E1,3.017601E0,1.0322511E1,6.8018427E0,8.658083E0,1.2974491E1,2.66039E0,3.8652904E0,8.180487E0,6.26248E0,8.689127E0,4.0929585E0,0E0,0E0,0E0,0E0,0E0,0E0,0E0,0E0,0E0,0E0,0E0,0E0,0E0,0E0,0E0,0E0],"parents":[2147483647,0,0,1,1,2,2,3,3,4,4,5,5,6,6,7,7,8,8,9,9,10,10,11,11,12,12,13,13,14,14],"right_children":[2,4,6,8,10,12,14,16,18,20,22,24,26,28,30,-1,-1,-1,-1,-1,-1,-1,-1,-1,-1,-1,-1,-1,-1,-1,-1],"split_conditions":[7.19E2,2.6320045E1,9.176E2,1.4674785E1,6.6106696E2,7.3437355E1,9.314607E2,1.1346254E1,4.0905655E2,2.2682089E1,6.5531906E1,9.343899E6,3.1440922E1,9.505E2,-6.457517E0,-5.5223954E-4,4.8487242E-2,1.1970508E-2,-8.41771E-2,-6.529433E-3,1.360905E-1,9.834975E-2,-7.5735174E-2,1.5050202E-2,8.523961E-2,-9.836333E-2,4.724538E-2,1.0955057E-2,-9.66849E-2,-2.0297868E-2,1.4216271E-2],"split_indices":[1,9,5,9,3,8,7,10,7,10,8,4,10,6,10,0,0,0,0,0,0,0,0,0,0,0,0,0,0,0,0],"split_type":[0,0,0,0,0,0,0,0,0,0,0,0,0,0,0,0,0,0,0,0,0,0,0,0,0,0,0,0,0,0,0],"sum_hessian":[5.1300225E3,4.8340527E3,2.959698E2,4.8230386E3,1.1013933E1,7.7964516E1,2.1800528E2,4.7664575E3,5.658108E1,7.8041625E0,3.2097704E0,6.6538E1,1.1426514E1,2.8693958E1,1.8931131E2,4.731179E3,3.52783E1,2.3468037E1,3.3113045E1,1.4844176E0,6.3197446E0,1.230227E0,1.9795436E0,3.5122498E1,3.1415508E1,7.687999E0,3.7385151E0,1.4067612E1,1.4626347E1,4.3953804E1,1.4535751E2],"tree_param":{"num_deleted":"0","num_feature":"11","num_nodes":"31","size_leaf_vector":"1"}},{"base_weights":[9.3845985E-5,1.0709838E-1,-3.9148466E-3,-1.6513565E-1,3.1477493E-1,-2.5759444E-1,-7.288987E-4,2.3297161E-1,-3.5849264E-1,1.0624077E0,2.6345575E-1,-1.4462493E-1,-1.330035E-1,1.5974628E-2,-3.4614705E-2,-8.321062E-2,5.117119E-2,-6.929202E-2,1.4505171E-3,1.7165226E-1,-9.544853E-2,-1.18480876E-1,3.0460576E-2,1.8301003E-2,-3.5905447E-2,8.738122E-4,5.4829806E-2,-2.2218084E-2,4.5681564E-4],"categories":[],"categories_nodes":[],"categories_segments":[],"categories_sizes":[],"default_left":[0,0,0,0,0,0,0,0,0,0,0,0,0,0,0,0,0,0,0,0,0,0,0,0,0,0,0,0,0],"id":41,"left_children":[1,3,5,7,9,11,13,15,17,19,21,23,-1,25,27,-1,-1,-1,-1,-1,-1,-1,-1,-1,-1,-1,-1,-1,-1],"loss_changes":[2.200862E0,1.0526779E1,3.9968796E0,6.305681E0,3.7657251E0,7.238937E0,2.765661E0,8.450757E0,6.8459263E0,1.0138744E1,6.320492E0,4.0431423E0,0E0,1.2603039E1,1.1857907E1,0E0,0E0,0E0,0E0,0E0,0E0,0E0,0E0,0E0,0E0,0E0,0E0,0E0,0E0],"parents":[2147483647,0,0,1,1,2,2,3,3,4,4,5,5,6,6,7,7,8,8,9,9,10,10,11,11,13,13,14,14],"right_children":[2,4,6,8,10,12,14,16,18,20,22,24,-1,26,28,-1,-1,-1,-1,-1,-1,-1,-1,-1,-1,-1,-1,-1,-1],"split_conditions":[2.30824E6,1.9353502E2,2.58476E6,-3.5662186E-1,1.9890031E2,6.451428E2,9.060518E1,-2.0085495E0,-2.3628684E-2,1.9174803E0,2.0382951E2,-3.0841175E-1,-1.330035E-1,8.987293E1,1.4286156E2,-8.321062E-2,5.117119E-2,-6.929202E-2,1.4505171E-3,1.7165226E-1,-9.544853E-2,-1.18480876E-1,3.0460576E-2,1.8301003E-2,-3.5905447E-2,8.738122E-4,5.4829806E-2,-2.2218084E-2,4.5681564E-4],"split_indices":[4,6,4,10,6,7,3,9,10,10,6,9,0,7,7,0,0,0,0,0,0,0,0,0,0,0,0,0,0],"split_type":[0,0,0,0,0,0,0,0,0,0,0,0,0,0,0,0,0,0,0,0,0,0,0,0,0,0,0,0,0],"sum_hessian":[5.1288545E3,1.8427455E2,4.94458E3,7.9831635E1,1.04442924E2,6.0338055E1,4.884242E3,2.6030972E1,5.380066E1,5.4431753E0,9.899975E1,5.5614544E1,4.7235093E0,3.2719229E3,1.6123193E3,4.9876657E0,2.1043306E1,2.7914757E1,2.5885902E1,4.222628E0,1.2205471E0,1.9673364E0,9.703241E1,2.2057928E1,3.3556618E1,3.229043E3,4.2879814E1,2.7780624E2,1.3345131E3],"tree_param":{"num_deleted":"0","num_feature":"11","num_nodes":"29","size_leaf_vector":"1"}},{"base_weights":[3.8340342E-5,-1.6965667E-2,2.5311226E-2,-1.1355942E-2,-3.8869172E-1,4.9141455E-1,1.9210571E-2,-2.0816501E-2,2.3490606E-1,-2.817153E-1,-1.1254607E0,7.636363E-1,-6.590851E-1,-2.9026845E-1,2.7865741E-2,-2.2612954E-3,9.475218E-2,3.4182385E-2,-1.8354995E-2,-4.718945E-2,6.356347E-2,-1.3182509E-1,-4.5282777E-2,1.0841519E-1,4.8576747E-3,-1.0899993E-1,4.9587213E-2,-1.4029919E-3,-8.1285626E-2,6.381522E-2,2.067515E-3],"categories":[],"categories_nodes":[],"categories_segments":[],"categories_sizes":[],"default_left":[0,0,0,0,0,0,0,0,0,0,0,0,0,0,0,0,0,0,0,0,0,0,0,0,0,0,0,0,0,0,0],"id":42,"left_children":[1,3,5,7,9,11,13,15,17,19,21,23,25,27,29,-1,-1,-1,-1,-1,-1,-1,-1,-1,-1,-1,-1,-1,-1,-1,-1],"loss_changes":[2.2045927E0,6.3905606E0,5.8577337E0,7.045844E0,3.2739825E0,8.839405E0,5.4663153E0,5.085799E0,5.068627E0,7.4736176E0,1.0886383E-1,4.986518E0,3.3422537E0,8.004254E0,8.689706E0,0E0,0E0,0E0,0E0,0E0,0E0,0E0,0E0,0E0,0E0,0E0,0E0,0E0,0E0,0E0,0E0],"parents":[2147483647,0,0,1,1,2,2,3,3,4,4,5,5,6,6,7,7,8,8,9,9,10,10,11,11,12,12,13,13,14,14],"right_children":[2,4,6,8,10,12,14,16,18,20,22,24,26,28,30,-1,-1,-1,-1,-1,-1,-1,-1,-1,-1,-1,-1,-1,-1,-1,-1],"split_conditions":[5.6626526E1,1.3086569E1,-6.457517E0,5.770446E7,1.4298402E3,1.172532E3,-7.472194E-1,1.4298402E3,1.7700252E2,1.1710806E3,2.898133E1,1.0901881E7,9.456383E6,2.44E2,-4.97433E-1,-2.2612954E-3,9.475218E-2,3.4182385E-2,-1.8354995E-2,-4.718945E-2,6.356347E-2,-1.3182509E-1,-4.5282777E-2,1.0841519E-1,4.8576747E-3,-1.0899993E-1,4.9587213E-2,-1.4029919E-3,-8.1285626E-2,6.381522E-2,2.067515E-3],"split_indices":[8,9,10,4,6,1,9,6,3,7,9,4,4,3,9,0,0,0,0,0,0,0,0,0,0,0,0,0,0,0,0],"split_type":[0,0,0,0,0,0,0,0,0,0,0,0,0,0,0,0,0,0,0,0,0,0,0,0,0,0,0,0,0,0,0],"sum_hessian":[5.128059E3,3.065721E3,2.0623381E3,3.0211592E3,4.456182E1,2.5616676E1,2.0367214E3,2.9102717E3,1.1088739E2,4.0119038E1,4.4427853E0,2.0987131E1,4.6295447E0,5.452591E1,1.9821954E3,2.9058574E3,4.414275E0,8.846678E1,2.242061E1,3.363221E1,6.4868274E0,2.7070525E0,1.7357329E0,1.41350975E1,6.852034E0,3.4125617E0,1.2169828E0,3.6342308E1,1.8183601E1,2.2061062E1,1.9601344E3],"tree_param":{"num_deleted":"0","num_feature":"11","num_nodes":"31","size_leaf_vector":"1"}},{"base_weights":[3.5639812E-5,1.3335708E-3,-3.1350595E-1,-2.1188601E-3,2.1776804E-1,3.8355368E-1,-5.7248914E-1,-1.2823504E-3,-1.1285143E-1,4.089446E-1,-3.7304807E-1,9.199047E-2,-2.3735267E-1,-1.7069986E-1,1.4822106E-1,-6.6215073E-4,1.24614565E-2,5.087618E-2,-5.2185625E-2,-6.327087E-2,1.1253349E-1,3.253826E-2,-7.578857E-2,7.412768E-2,-2.4250504E-2],"categories":[],"categories_nodes":[],"categories_segments":[],"categories_sizes":[],"default_left":[0,0,0,0,0,0,0,0,0,0,0,0,0,0,0,0,0,0,0,0,0,0,0,0,0],"id":43,"left_children":[1,3,5,7,9,11,13,15,-1,17,19,-1,21,-1,23,-1,-1,-1,-1,-1,-1,-1,-1,-1,-1],"loss_changes":[2.0874274E0,3.8174393E0,4.0369873E0,4.7370734E0,9.212656E0,2.3254004E0,1.3187369E1,3.3793936E0,0E0,5.940464E0,8.545164E0,0E0,1.3384069E0,0E0,2.6345649E0,0E0,0E0,0E0,0E0,0E0,0E0,0E0,0E0,0E0,0E0],"parents":[2147483647,0,0,1,1,2,2,3,3,4,4,5,5,6,6,7,7,9,9,10,10,12,12,14,14],"right_children":[2,4,6,8,10,12,14,16,-1,18,20,-1,22,-1,24,-1,-1,-1,-1,-1,-1,-1,-1,-1,-1],"split_conditions":[5.1017487E1,2.6320045E1,9.505E2,3.1440922E1,1.3929967E3,7.448278E1,1.2123059E3,7.19E2,-1.1285143E-1,4.5758824E7,2.7614054E7,9.199047E-2,1.5690849E7,-1.7069986E-1,1.4553845E3,-6.6215073E-4,1.24614565E-2,5.087618E-2,-5.2185625E-2,-6.327087E-2,1.1253349E-1,3.253826E-2,-7.578857E-2,7.412768E-2,-2.4250504E-2],"split_indices":[10,9,6,10,3,8,6,1,0,4,4,0,4,0,3,0,0,0,0,0,0,0,0,0,0],"split_type":[0,0,0,0,0,0,0,0,0,0,0,0,0,0,0,0,0,0,0,0,0,0,0,0,0],"sum_hessian":[5.1273496E3,5.1072036E3,2.014594E1,5.02799E3,7.9213234E1,5.327052E0,1.481889E1,5.02526E3,2.7308354E0,6.0080265E1,1.9132969E1,2.599769E0,2.7272828E0,5.2251687E0,9.59372E0,4.8217227E3,2.0353685E2,5.4670883E1,5.4093804E0,1.6799463E1,2.3335056E0,1.490666E0,1.2366168E0,3.4539835E0,6.1397367E0],"tree_param":{"num_deleted":"0","num_feature":"11","num_nodes":"25","size_leaf_vector":"1"}},{"base_weights":[1.1082058E-5,-2.5458774E-2,1.5031782E-2,9.244518E-2,-5.6043822E-2,1.4778256E-1,1.5606415E-3,3.1776253E-2,1.453984E0,-2.1464485E-1,-6.0092052E-3,-4.9319323E-2,6.061098E-1,5.3130895E-1,-1.8985496E-3,4.049967E-2,-4.6491874E-3,1.6600628E-1,-3.8559847E-2,3.1597815E-2,-3.0231306E-2,1.9536069E-2,-4.4482253E-3,-8.8989566E-4,-1.1492827E-1,1.0692338E-1,3.8664583E-2,2.9330978E-2,1.3682947E-1,-8.871408E-3,2.0942446E-3],"categories":[],"categories_nodes":[],"categories_segments":[],"categories_sizes":[],"default_left":[0,0,0,0,0,0,0,0,0,0,0,0,0,0,0,0,0,0,0,0,0,0,0,0,0,0,0,0,0,0,0],"id":44,"left_children":[1,3,5,7,9,11,13,15,17,19,21,23,25,27,29,-1,-1,-1,-1,-1,-1,-1,-1,-1,-1,-1,-1,-1,-1,-1,-1],"loss_changes":[1.962094E0,6.866019E0,5.7689915E0,3.2355583E1,1.1991748E1,2.6878304E1,5.370021E0,1.101827E1,6.9751396E0,1.6954386E1,8.9173E0,9.271071E0,8.678249E0,3.3857355E0,5.775963E0,0E0,0E0,0E0,0E0,0E0,0E0,0E0,0E0,0E0,0E0,0E0,0E0,0E0,0E0,0E0,0E0],"parents":[2147483647,0,0,1,1,2,2,3,3,4,4,5,5,6,6,7,7,8,8,9,9,10,10,11,11,12,12,13,13,14,14],"right_children":[2,4,6,8,10,12,14,16,18,20,22,24,26,28,30,-1,-1,-1,-1,-1,-1,-1,-1,-1,-1,-1,-1,-1,-1,-1,-1],"split_conditions":[4.6774193E1,-1.4910336E0,-4.427331E-1,-1.6913153E0,-4.7205204E-1,-1.0630293E0,-2.2798412E0,1.05E2,3.5245036E7,2.7881712E1,-4.611513E-1,1.2603646E3,4.03625E1,2.9215618E7,1.4225618E-2,4.049967E-2,-4.6491874E-3,1.6600628E-1,-3.8559847E-2,3.1597815E-2,-3.0231306E-2,1.9536069E-2,-4.4482253E-3,-8.8989566E-4,-1.1492827E-1,1.0692338E-1,3.8664583E-2,2.9330978E-2,1.3682947E-1,-8.871408E-3,2.0942446E-3],"split_indices":[8,10,9,9,10,10,10,2,4,2,9,6,6,4,10,0,0,0,0,0,0,0,0,0,0,0,0,0,0,0,0],"split_type":[0,0,0,0,0,0,0,0,0,0,0,0,0,0,0,0,0,0,0,0,0,0,0,0,0,0,0,0,0,0,0],"sum_hessian":[5.1266504E3,1.9015654E3,3.225085E3,3.9125867E2,1.5103068E3,2.9620227E2,2.9288828E3,3.7554794E2,1.5710736E1,3.6141E2,1.1488967E3,2.077518E2,8.845047E1,1.8011217E1,2.9108716E3,6.4379715E1,3.1116824E2,1.4215801E1,1.4949343E0,5.087546E1,3.1053455E2,1.8363963E2,9.6525714E2,2.0136049E2,6.3913054E0,2.7193453E1,6.1257015E1,1.50750265E1,2.9361897E0,6.057216E2,2.30515E3],"tree_param":{"num_deleted":"0","num_feature":"11","num_nodes":"31","size_leaf_vector":"1"}},{"base_weights":[8.812106E-5,1.4942512E-1,-2.4081324E-3,-4.0415052E-2,3.717299E-1,1.1625729E-3,-1.11276105E-1,5.0315493E-1,-2.4399658E-1,4.717928E-1,-4.56846E-1,2.8832993E-3,-4.482752E-1,-4.2842947E-2,-5.226295E-1,-2.1943776E-2,1.09595455E-1,2.2459127E-2,-5.2167315E-2,8.963036E-2,2.0545643E-2,-1.1124744E-1,4.234628E-2,-9.286112E-5,2.1469522E-2,-1.0335487E-1,1.1039558E-2,-2.0687817E-2,2.8797729E-2,-1.0295614E-1,3.756195E-2],"categories":[],"categories_nodes":[],"categories_segments":[],"categories_sizes":[],"default_left":[0,0,0,0,0,0,0,0,0,0,0,0,0,0,0,0,0,0,0,0,0,0,0,0,0,0,0,0,0,0,0],"id":45,"left_children":[1,3,5,7,9,11,13,15,17,19,21,23,25,27,29,-1,-1,-1,-1,-1,-1,-1,-1,-1,-1,-1,-1,-1,-1,-1,-1],"loss_changes":[1.9114374E0,3.572669E0,1.9606059E0,5.254319E0,3.4430242E0,3.778417E0,4.486352E0,5.7927313E0,4.5944576E0,3.7984972E0,3.1852217E0,3.9293804E0,6.2070317E0,7.570638E0,1.0748587E1,0E0,0E0,0E0,0E0,0E0,0E0,0E0,0E0,0E0,0E0,0E0,0E0,0E0,0E0,0E0,0E0],"parents":[2147483647,0,0,1,1,2,2,3,3,4,4,5,5,6,6,7,7,8,8,9,9,10,10,11,11,12,12,13,13,14,14],"right_children":[2,4,6,8,10,12,14,16,18,20,22,24,26,28,30,-1,-1,-1,-1,-1,-1,-1,-1,-1,-1,-1,-1,-1,-1,-1,-1],"split_conditions":[1.808518E6,2.3344644E2,8.235296E1,-3.5662186E-1,6.875001E1,1.4553845E3,4.678483E2,4.3999996E1,4.64286E1,2.5431342E2,7.692308E1,2.3820623E1,1.4298402E3,7.137195E1,1.02E3,-2.1943776E-2,1.09595455E-1,2.2459127E-2,-5.2167315E-2,8.963036E-2,2.0545643E-2,-1.1124744E-1,4.234628E-2,-9.286112E-5,2.1469522E-2,-1.0335487E-1,1.1039558E-2,-2.0687817E-2,2.8797729E-2,-1.0295614E-1,3.756195E-2],"split_indices":[4,7,8,10,8,3,7,8,8,7,8,9,6,3,1,0,0,0,0,0,0,0,0,0,0,0,0,0,0,0,0],"split_type":[0,0,0,0,0,0,0,0,0,0,0,0,0,0,0,0,0,0,0,0,0,0,0,0,0,0,0,0,0,0,0],"sum_hessian":[5.1255146E3,8.329964E1,5.042215E3,4.5371895E1,3.7927742E1,4.883048E3,1.5916728E2,1.1961839E1,3.3410057E1,3.4225143E1,3.702598E0,4.8654136E3,1.7634232E1,1.3741151E2,2.1755766E1,5.6746078E0,6.2872314E0,1.2502641E1,2.0907417E1,1.228265E1,2.1942495E1,1.9709556E0,1.7316425E0,4.7803784E3,8.50353E1,8.196948E0,9.437284E0,9.211266E1,4.5298855E1,1.38137245E1,7.9420414E0],"tree_param":{"num_deleted":"0","num_feature":"11","num_nodes":"31","size_leaf_vector":"1"}},{"base_weights":[7.557199E-5,3.2322353E-1,-1.0638193E-3,5.473584E-1,-2.4897055E-1,-1.8323268E-1,1.8376794E-3,-3.810619E-2,9.217693E-1,3.9421096E-2,-6.557988E-1,4.907295E-1,-3.3344415E-1,2.466622E-1,-3.2060659E-3,4.7637563E-2,-7.441132E-2,1.0006688E-1,2.1692464E-2,-8.854545E-2,-6.042521E-3,1.2600188E-2,1.1448212E-1,-7.735211E-3,-6.494457E-2,4.595912E-2,-1.5569198E-2,-2.989954E-3,1.5058075E-3],"categories":[],"categories_nodes":[],"categories_segments":[],"categories_sizes":[],"default_left":[0,0,0,0,0,0,0,0,0,0,0,0,0,0,0,0,0,0,0,0,0,0,0,0,0,0,0,0,0],"id":46,"left_children":[1,3,5,7,9,11,13,15,17,-1,19,21,23,25,27,-1,-1,-1,-1,-1,-1,-1,-1,-1,-1,-1,-1,-1,-1],"loss_changes":[1.8875655E0,2.446337E0,2.70057E0,2.9407327E0,1.7649549E0,8.272918E0,6.21142E0,2.581306E0,2.3475313E-1,0E0,4.8001266E-1,3.435127E0,5.2988076E0,8.770523E0,2.4034996E0,0E0,0E0,0E0,0E0,0E0,0E0,0E0,0E0,0E0,0E0,0E0,0E0,0E0,0E0],"parents":[2147483647,0,0,1,1,2,2,3,3,4,4,5,5,6,6,7,7,8,8,10,10,11,11,12,12,13,13,14,14],"right_children":[2,4,6,8,10,12,14,16,18,-1,20,22,24,26,28,-1,-1,-1,-1,-1,-1,-1,-1,-1,-1,-1,-1,-1,-1],"split_conditions":[-3.0144276E1,3.8135628E1,-1.3775085E1,6.9145E2,5.413599E6,4.6172018E2,-5.735248E0,6.123724E2,3.374622E7,3.9421096E-2,1.9432136E7,4.4187878E2,-1.9172281E1,1.8349308E7,1.4225618E-2,4.7637563E-2,-7.441132E-2,1.0006688E-1,2.1692464E-2,-8.854545E-2,-6.042521E-3,1.2600188E-2,1.1448212E-1,-7.735211E-3,-6.494457E-2,4.595912E-2,-1.5569198E-2,-2.989954E-3,1.5058075E-3],"split_indices":[9,8,9,6,4,3,10,0,4,0,4,6,9,4,10,0,0,0,0,0,0,0,0,0,0,0,0,0,0],"split_type":[0,0,0,0,0,0,0,0,0,0,0,0,0,0,0,0,0,0,0,0,0,0,0,0,0,0,0,0,0],"sum_hessian":[5.124646E3,1.701236E1,5.107634E3,1.2255246E1,4.7571144E0,7.9102135E1,5.0285317E3,5.1306677E0,7.124578E0,1.855169E0,2.901945E0,1.4003758E1,6.509838E1,1.00537025E2,4.9279946E3,3.156046E0,1.9746219E0,6.029897E0,1.0946807E0,1.742557E0,1.1593881E0,9.75623E0,4.2475286E0,3.6645306E1,2.8453074E1,6.565149E1,3.488554E1,2.0017509E3,2.9262437E3],"tree_param":{"num_deleted":"0","num_feature":"11","num_nodes":"29","size_leaf_vector":"1"}},{"base_weights":[9.859503E-5,8.283763E-2,-4.2819143E-3,7.41267E-1,4.9948193E-2,-3.859674E-2,1.3222427E-2,9.3217367E-1,-1.6624104E-2,2.770358E-1,-3.0882731E-2,8.849252E-2,-7.170772E-2,2.2154568E-1,6.4284955E-3,1.04826905E-1,3.11341E-3,1.1140007E-1,9.952745E-3,-5.1506836E-2,7.1328245E-3,6.064069E-2,-6.4105885E-3,-3.9906565E-2,-3.3058894E-3,6.1569907E-2,1.6190413E-3,6.4985454E-2,4.609516E-4],